SVM-light Version V6.02
0 # kernel type
3 # kernel parameter -d 
1 # kernel parameter -g 
1 # kernel parameter -s 
1 # kernel parameter -r 
empty# kernel parameter -u 
16963 # highest feature index 
653 # number of training documents 
371 # number of support vectors plus 1 
0.72379999 # threshold b, each following line is a SV (starting with alpha*y)
-2.0006791503086926561818387204639e-05 195:6.2146082 300:2.4418471 466:21.370707 528:2.5133061 637:25.283838 644:2.7968814 692:1.0498221 1168:3.0835586 1302:0.80296206 1345:3.1941831 1462:0.60330647 1484:5.3936524 1660:43.846245 1690:1.0356375 1822:1.1907276 1923:2.9565115 1971:0.6311118 2246:1.7372713 2267:3.2901301 2268:2.1202636 2353:1.7203695 2419:1.9805017 2507:6.621295 2830:52.282288 2874:1.0216513 3006:3.6496587 3148:0.449417 3226:106.32113 3585:3.8632329 3949:1.1363142 4457:0.29005155 4675:0.26526847 4811:2.9759297 5066:0.87466908 5095:2.4415598 5459:2.0794415 5570:2.0714734 5836:6.2146082 6090:4.2686977 6134:0.65423226 6282:5.2983174 6295:1.1481769 6391:10.770825 6597:1.2658482 6722:0.83240926 6748:6.2146082 6806:1.0518786 7030:4.8831196 7073:1.6014647 7149:0.2600669 7339:2.5770218 7421:4.4328146 7481:68.007797 7504:64.873505 7646:2.5010359 7654:0.77870506 7831:13.943754 8287:2.2443161 8329:3.3524072 8511:5.521461 8751:0.92130327 8791:4.7105308 8839:4.2082357 9258:2.7116046 9497:3.0191851 9637:0.94963038 9748:0.86512244 9820:10.15323 9887:10.009114 9903:9.0478048 9958:7.2573566 10028:2.4769385 10724:1.476289 11152:58.136738 11231:4.1351666 11417:3.270169 11444:2.8302178 11468:0.3640776 12340:1.2073117 12472:2.4889147 12497:4.074542 12547:18.09561 13103:3.2441936 13281:0.731888 13452:1.5558971 13574:2.032558 13681:1.7445477 13820:0.66815025 14158:0.98349947 14449:4.1112628 14484:0.24433526 14536:3.8167129 14655:8.8456974 15114:2.6310892 15581:5.1540437 15826:5.8091431 16076:3.473768 16167:2.3359246 16538:2.2633643 16547:3.6157777 # Neil Young
1.193499823416793807198330035213e-05 70:3.6888795 102:1.4229584 144:2.4191189 339:6.2146082 442:2.5510464 465:7.135582 483:11.618286 520:2.7968814 550:4.50986 602:2.0174062 974:6.2146082 1089:18.643824 1462:0.60330647 1690:1.0356375 1711:4.7105308 1822:1.1907276 1922:5.2983174 2246:3.4745426 2440:3.0365543 2492:1.6094379 2510:2.9759297 2702:6.947536 2760:2.8473122 2894:1.8515095 3148:0.449417 3327:5.8091431 3558:3.9633162 3567:4.0173836 3724:2.1370707 3964:4.1997051 4042:4.7105308 4219:6.2146082 4294:4.7105308 4300:0.80743635 4320:11.618286 4415:4.50986 4457:14.647603 4579:2.6636124 4592:2.5770218 4675:14.059229 4873:2.4347916 5331:1.8209084 5542:4.7105308 5746:70.644928 6111:2.9759297 6134:0.32711613 6295:0.76545125 6373:2.0402207 6722:0.83240926 6906:1.2517635 7073:9.6087885 7149:0.52013379 7305:2.65926 7358:278.89297 7438:4.0173836 7551:4.4228487 7654:1.5574101 7806:4.1351666 7925:12.059493 7984:1.5847453 8039:18.643824 8228:2.9565115 8314:6.2146082 8328:2.2443161 8513:4.7105308 8598:2.6310892 8668:2.7333679 8727:4.9618449 8891:21.897953 9637:34.66151 9887:1.2669765 10028:2.4769385 10327:6.2146082 10360:4.2686977 10504:2.3751557 10725:3.7722611 10938:2.0479429 10952:14.885535 11201:30.978174 11225:4.2686977 11399:5.8091431 11468:1.2742716 11576:3.0365543 11708:5.8091431 12045:1.9103005 12464:4.1997051 12976:4.50986 13018:15.182772 13820:1.3363005 13857:0.99967235 14265:0.50087529 14417:5.521461 14484:0.12216763 14789:2.7646205 15464:5.2983174 15624:2.3644605 16154:5.3424048 16218:6.2146082 16708:1.9510202 16885:2.6036901 # Foals
-2.4357546027974547334039780860371e-06 102:1.4229584 113:2.2827826 150:2.0099156 486:0.81871039 528:5.0266123 602:2.0174062 692:2.0996442 1168:1.5417793 1302:1.6059241 1347:3.9633162 1365:0.99967235 1462:1.8099195 1484:0.89894211 1608:2.3968959 1660:1.5475144 1690:1.0356375 1814:18.643824 1971:0.6311118 2353:1.7203695 2535:1.7092582 2874:6.1299076 3148:0.449417 3151:2.1037343 3949:2.2726283 4457:1.8853351 4569:2.3751557 4675:0.53053695 4846:1.5881462 4879:3.9755487 5066:0.87466908 5095:1.2207799 5112:1.5417793 5331:2.4278779 5915:2.1892564 6134:0.9813484 6188:3.7297015 6295:3.4445305 6722:0.83240926 6806:6.3112712 6906:1.2517635 7030:1.2207799 7100:3.9038565 7149:1.0402676 7481:1.3466891 7654:1.5574101 7984:1.5847453 7999:4.1997051 8573:2.9565115 8684:6.2146082 8839:1.6832944 9258:0.9038682 9328:1.4961092 9637:1.4244455 9748:2.5953674 9855:3.5065579 9887:12.796463 9948:1.7778566 10563:2.1628232 10579:1.3040105 10724:0.73814452 10736:10.421304 11065:78.675529 11152:0.75502259 11236:0.62175721 11468:6.2803383 11673:1.0817552 12045:0.63676685 12072:3.4112477 12235:2.6172957 12340:2.4146235 12610:2.8647039 12644:1.5994875 13153:1.5464631 13237:1.130103 13261:7.2196174 13281:0.731888 13350:1.4396951 13452:6.2235885 13587:3.4112477 13681:0.87227386 13708:2.7030628 13820:17.03783 13857:0.99967235 14158:1.9669989 14265:1.0017506 14469:1.7778566 14484:11.36159 14896:88.343376 15010:1.4524342 15042:1.7778566 15063:0.66943067 15299:2.8473122 15576:3.8632329 15824:2.7806208 15904:3.2188759 15964:3.079114 16039:1.2694006 16708:0.97551012 16722:2.2537949 16912:6.2146082 # Maroon 5
-1.3943586051254309899781382714457e-06 144:2.4191189 161:2.0557251 413:3.4420195 598:2.453408 602:2.0174062 692:1.0498221 1203:6.2146082 1365:1.9993447 1462:0.60330647 1546:2.3330443 1660:0.51583815 1748:2.2633643 1968:2.4769385 1969:4.1997051 2017:6.2146082 2029:5.8091431 2041:5.521461 2353:1.7203695 2356:1.0328245 2535:1.7092582 2894:1.8515095 3148:0.89883399 3267:37.195343 3897:3.3524072 3949:1.1363142 4383:16.564383 4457:9.4266748 4553:6.2146082 4569:4.7503114 4635:5.1159959 4846:1.5881462 4873:1.2173958 4969:4.3431139 5007:3.9120231 5095:1.2207799 5112:1.5417793 5262:2.4651041 5331:0.60696948 5494:2.9565115 6134:0.65423226 6295:2.6790793 6335:4.50986 6423:5.2983174 6597:1.2658482 6629:4.4228487 6722:0.83240926 6806:5.7853317 6906:1.2517635 7083:6.2146082 7149:0.78020072 7649:6.2146082 7654:1.5574101 8360:6.2146082 8579:1.6873995 8598:2.6310892 8839:0.84164721 9328:4.4883275 9350:4.1997051 9637:1.8992608 9748:0.86512244 9833:2.65926 9855:3.5065579 9887:12.796463 10563:2.1628232 10579:1.9560157 11065:83.145729 11132:4.6051702 11236:0.62175721 11468:8.7378626 11673:1.0817552 12072:3.4112477 12340:1.2073117 12560:2.3434072 12610:2.8647039 13261:7.2196174 13303:4.1351666 13439:6.2146082 13440:5.1159959 13452:7.7794857 13587:3.4112477 13805:5.521461 13820:25.389708 13857:0.99967235 14158:0.98349947 14265:1.0017506 14266:4.9618449 14449:1.3704211 14484:2.4433527 14927:3.7297015 15063:0.66943067 15299:2.8473122 15306:2.7030628 15544:4.50986 15768:40.664001 15837:2.5257287 16476:4.1911421 16503:5.521461 16535:2.5510464 16708:0.97551012 16843:6.2146082 # OneRepublic
-2.0006791503086926561818387204639e-05 53:3.0365543 102:1.4229584 144:2.4191189 185:3.9120231 334:2.4769385 483:5.8091431 541:6.2146082 1347:3.9633162 1660:0.51583815 1690:1.0356375 1709:14.50211 1833:6.2146082 1949:4.8283138 1965:2.0174062 1971:0.6311118 2076:15.483325 2874:1.0216513 3148:0.449417 3242:6.2146082 3515:3.6119184 3949:1.1363142 4300:0.80743635 4457:1.3052319 4579:74.581146 4641:1.6607312 4675:26.792116 4826:3.0576077 5331:46.129681 5492:1.8451602 5508:4.6660886 5698:4.8283138 5746:20.509817 6134:0.32711613 6142:3.8167129 6259:51.095222 6295:1.5309025 6906:1.2517635 6908:1.9241487 6910:7.459403 6930:6.7627897 7149:0.78020072 7654:1.5574101 7925:4.0198312 7953:3.2968373 8207:2.0174062 8301:4.4228487 8495:5.521461 8579:1.6873995 8697:22.085844 8709:6.2146082 8833:5.8091431 8948:11.042922 8958:96.551163 9258:1.8077364 9546:2.9565115 9738:5.4362011 9748:0.86512244 9948:1.7778566 10612:5.8091431 10789:3.5755508 11074:13.268546 11117:5.2983174 11338:3.2441936 11406:5.9914646 11408:7.5092692 11468:0.091019399 11577:4.2686977 11921:4.8283138 12045:21.650072 12285:6.2146082 12939:5.521461 12976:4.50986 13018:9.109663 13038:6.2146082 13081:3.1465552 13151:6.2146082 13175:6.2146082 13334:5.1159959 13350:1.4396951 13427:2.9374633 13857:0.99967235 13887:4.0173836 14465:5.2983174 14484:0.97734106 15360:6.2146082 15404:12.2409 15580:2.6172957 15624:2.3644605 15919:3.2188759 16039:1.2694006 16048:6.2146082 16154:5.3424048 16254:4.4228487 16362:2.8824036 16459:6.2146082 16706:10.518671 16813:5.8091431 16883:5.521461 16885:2.6036901 16943:4.3428059 # Calvin Harris
2.0006791503086926561818387204639e-05 302:3.0159349 375:3.8632329 465:2.8542328 486:0.81871039 754:2.7181005 1168:3.0835586 1302:0.80296206 1365:0.99967235 1462:1.2066129 1484:2.6968262 1660:5.6742196 1690:7.2494626 1822:2.3814552 1976:2.3644605 2122:44.171688 2246:1.7372713 2267:3.2901301 2353:1.7203695 2419:3.9610033 2492:3.2188759 2507:1.3242589 2874:1.0216513 3006:10.948977 3065:3.3813949 3148:0.449417 3226:1.7429693 3448:4.6252708 3724:21.370707 3949:2.2726283 4285:255.10464 4457:0.87015462 4675:1.0610739 4873:1.2173958 5066:3.4986763 5095:1.2207799 5230:2.6736488 5331:1.213939 5333:46.999413 5459:2.0794415 5746:28.485857 6134:0.65423226 6295:1.9136281 6391:6.4624953 6597:1.2658482 6722:0.83240926 6906:2.5035269 7073:7.2065916 7149:0.52013379 7339:2.5770218 7481:58.580975 7654:0.77870506 7831:26.144539 7984:1.5847453 8206:3.1941831 8287:2.2443161 8469:2.8134108 8839:0.84164721 8958:2.1455812 9258:44.289543 9497:4.5287776 9637:0.94963038 9748:1.7302449 9887:12.796463 10028:7.4308152 10724:2.9525781 10725:3.7722611 11052:7.377759 11065:1.7880802 11152:1.5100452 11236:0.62175721 11308:24.858433 11468:3.9138341 11559:4.1351666 11673:1.0817552 12045:1.2735337 12472:2.4889147 13024:2.1455812 13103:6.4883871 13153:3.0929263 13261:1.4439235 13281:0.731888 13574:2.032558 13681:0.87227386 13820:2.0044506 13857:0.99967235 14158:0.98349947 14265:0.50087529 14381:1.7259717 14484:2.4433527 15063:0.66943067 15114:2.6310892 16039:1.2694006 16154:4.0068035 16167:3.5038872 16221:3.2188759 16545:4.2686977 16547:5.4236665 16626:3.6496587 16706:2.1037343 16708:1.9510202 # David Bowie
2.0006791503086926561818387204639e-05 53:3.0365543 150:2.0099156 302:3.0159349 413:3.4420195 465:1.4271164 486:0.81871039 520:2.7968814 598:2.453408 692:1.0498221 1185:3.3242364 1302:0.80296206 1365:0.99967235 1462:0.60330647 1484:0.89894211 1546:2.3330443 1660:0.51583815 1690:1.0356375 1822:3.5721827 1971:0.6311118 2246:6.9490852 2268:4.2405272 2356:2.065649 2419:1.9805017 2492:1.6094379 2510:2.9759297 3148:0.89883399 3448:2.3126354 3674:4.074542 3724:10.685353 3949:1.1363142 4300:0.80743635 4457:8.5565205 4579:1.3318062 4618:3.1465552 4675:12.732887 4846:0.7940731 4873:1.2173958 5066:5.2480145 5146:58.28149 5481:2.7488723 5746:26.206989 6134:0.9813484 6295:0.76545125 6597:1.2658482 6722:0.83240926 6906:22.531742 7030:1.2207799 7073:12.010986 7149:0.52013379 7333:2.2827826 7390:2.8302178 7454:1.9805017 7481:0.67334455 7570:1.7259717 7654:0.77870506 7925:2.0099156 7984:1.5847453 8287:2.2443161 8672:2.7488723 8839:0.84164721 9097:2.198225 9258:0.9038682 9637:7.597043 9871:5.521461 9887:9.1222315 10003:4.3428059 10028:9.9077539 10288:1.2517635 10564:2.7646205 10724:3.6907227 10732:2.5770218 10938:2.0479429 10952:4.9618449 11065:0.89404011 11152:0.75502259 11236:0.62175721 11468:9.1929588 11673:1.0817552 12045:3.1838343 12340:1.2073117 12419:2.1715569 13153:1.5464631 13281:0.731888 13452:1.5558971 13610:4.6660886 13681:0.87227386 13820:26.391933 13857:0.99967235 14158:0.98349947 14265:0.50087529 14381:3.4519434 14469:1.7778566 14484:0.36650291 15010:1.4524342 15063:1.3388613 15721:3.7297015 16154:4.0068035 16167:3.5038872 16547:3.6157777 16708:1.9510202 # Radiohead
2.0006791503086926561818387204639e-05 302:9.0478048 413:3.4420195 1030:5.521461 1110:4.4328146 1302:0.80296206 1308:6.2146082 1314:2.9957323 1365:0.99967235 1392:4.9618449 1462:0.60330647 1484:1.7978842 1660:0.51583815 1690:1.0356375 1822:1.1907276 1971:0.6311118 2246:1.7372713 2268:2.1202636 2356:1.0328245 2492:1.6094379 2510:5.9518595 2894:1.8515095 3148:0.89883399 3267:3.3813949 3299:5.1159959 3682:2.5770218 3724:2.1370707 3949:1.1363142 4300:0.80743635 4457:6.2361083 4618:3.1465552 4675:1.0610739 4846:1.5881462 4873:2.4347916 5066:49.856136 5095:1.2207799 5146:5.2983174 5331:0.60696948 5492:1.8451602 5746:26.206989 5943:3.8632329 6134:0.65423226 6278:3.473768 6295:1.1481769 6597:1.2658482 6722:0.83240926 6906:13.769398 7030:1.2207799 7073:2.4021971 7149:0.78020072 7390:2.8302178 7454:1.9805017 7481:0.67334455 7654:0.77870506 7984:1.5847453 8287:2.2443161 8379:6.2146082 8508:1.5702173 8839:0.84164721 8873:55.214611 9097:2.198225 9258:0.9038682 9637:6.1725974 9887:10.7693 10003:4.3428059 10233:2.2349265 10288:1.2517635 10564:5.5292411 10724:1.476289 10732:2.5770218 11065:0.89404011 11236:0.62175721 11468:6.4623771 11576:3.0365543 11673:1.0817552 12045:0.63676685 13153:1.5464631 13281:0.731888 13337:2.5010359 13610:2.3330443 13681:0.87227386 13820:33.741585 13857:0.99967235 14158:0.98349947 14265:0.50087529 14276:2.0794415 14344:13.815511 14381:8.629859 14449:1.3704211 14469:1.7778566 14484:0.24433526 15010:1.4524342 15063:0.66943067 15243:4.1351666 15767:3.473768 16039:1.2694006 16154:4.0068035 16167:1.1679623 16476:2.095571 16547:1.8078889 16708:1.9510202 # Muse
2.0006791503086926561818387204639e-05 221:6.2146082 442:2.5510464 602:4.0348125 692:1.0498221 1110:4.4328146 1365:0.99967235 1462:0.60330647 1660:4.6425433 1788:24.858433 1916:2.3126354 1971:56.80006 2356:2.065649 2492:1.6094379 2507:1.3242589 2894:1.8515095 3148:0.449417 3724:6.411212 4010:3.1941831 4233:5.2983174 4243:4.9618449 4300:0.80743635 4357:6.2146082 4457:14.647603 4549:5.8091431 4675:0.53053695 4873:2.4347916 5095:1.2207799 5331:0.60696948 5411:6.2146082 5492:1.8451602 5639:12.230431 5746:78.620964 5963:6.2146082 6134:0.32711613 6147:2.6882477 6363:3.9633162 6373:2.0402207 6413:3.6496587 6906:2.5035269 7073:2.4021971 7149:0.52013379 7277:6.1858525 7654:45.9436 7925:2.0099156 8183:6.2146082 8598:2.6310892 8688:3.270169 8834:5.521461 8839:1.6832944 8895:3.2188759 9096:5.1159959 9207:4.3428059 9637:3.3237064 9735:3.4420195 9748:5.1907349 9811:6.2146082 9858:4.074542 9887:0.7601859 10992:6.2146082 11065:1.7880802 11152:8.3052483 11236:0.62175721 11256:3.5755508 11357:5.8091431 11384:3.6119184 11468:6.3713579 11577:4.2686977 11673:1.0817552 11680:6.2146082 11697:3.8167129 11801:4.4228487 12045:0.63676685 12340:1.2073117 12644:3.1989751 12896:4.9618449 13024:4.2911625 13261:1.4439235 13509:4.1351666 13803:9.2103405 13820:1.6703756 13884:6.2146082 13920:3.2968373 14120:6.7329488 14265:0.50087529 14476:4.3428059 14484:1.2216763 14752:4.4228487 15042:1.7778566 15047:12.429216 15321:5.1159959 15375:1.8451602 15492:4.6051702 15624:4.7289209 16039:1.2694006 16154:4.0068035 16213:5.8091431 16221:6.4377518 16430:6.2146082 16547:1.8078889 16708:1.9510202 # Florence + the Machine
2.0006791503086926561818387204639e-05 209:4.8283138 296:6.2146082 433:4.8283138 442:2.5510464 466:12.822424 598:2.453408 637:3.8898213 692:1.0498221 1365:0.99967235 1660:1.5475144 2027:4.7105308 2346:3.6119184 2392:6.2146082 2449:2.3330443 2492:1.6094379 2507:1.3242589 2690:6.2146082 2962:5.521461 3148:0.449417 3226:13.943754 3423:5.521461 3533:6.2146082 3627:6.2146082 3949:1.1363142 4280:6.2146082 4300:0.80743635 4329:3.9633162 4457:11.021958 4579:1.3318062 4592:2.5770218 4630:4.8283138 4675:0.26526847 4873:1.2173958 4897:5.1159959 5041:6.2146082 5746:62.668884 5858:6.2146082 6134:0.32711613 6295:1.1481769 6307:6.2146082 6858:6.2146082 7149:0.52013379 7654:1.5574101 8579:1.6873995 8625:5.8091431 8701:6.2146082 8751:0.92130327 8798:5.1159959 8839:40.399067 8951:4.074542 9051:5.1159959 9106:19.1651 9128:11.618286 9157:3.3813949 9637:1.8992608 9820:2.5383074 9887:0.63348824 9958:12.095594 10193:6.2146082 10585:3.3813949 11107:20.652117 11152:76.257278 11236:0.62175721 11389:4.9618449 11468:0.6371358 11639:6.2146082 11673:1.0817552 11697:3.8167129 12057:4.3428059 12281:6.2146082 12569:4.9618449 13024:6.4367442 13064:5.8091431 13208:6.2146082 13587:3.4112477 13820:0.66815025 14120:24.687477 14185:6.2146082 14265:0.50087529 14348:20.652117 14387:4.7105308 14418:3.8167129 14484:0.24433526 14597:3.3242364 14752:4.4228487 14866:3.6888795 14992:6.2146082 15063:0.66943067 15368:5.8091431 15392:9.4210615 15623:140.59566 15624:2.3644605 16006:6.2146082 16126:6.2146082 16154:2.6712024 16174:5.8091431 16313:6.2146082 16361:11.618286 16567:4.2686977 16708:1.9510202 # Mumford & Sons
-2.0006791503086926561818387204639e-05 300:2.4418471 465:2.8542328 495:2.4889147 644:2.7968814 1168:3.0835586 1185:3.3242364 1302:1.6059241 1462:3.619839 1484:1.7978842 1660:39.203701 1690:2.071275 1822:1.1907276 1916:2.3126354 2246:1.7372713 2267:1.6450651 2353:1.7203695 2419:5.941505 2507:1.3242589 2535:1.7092582 2874:1.0216513 2943:3.6888795 3006:175.18362 3151:2.1037343 3226:1.7429693 3448:4.6252708 3724:10.685353 3949:1.1363142 4010:3.1941831 4271:5.8375425 4285:135.20546 4389:11.618286 4457:1.1602062 4675:0.26526847 5066:1.7493382 5095:1.2207799 5333:11.749853 5459:4.1588831 5746:1.1394343 6134:0.32711613 6295:1.9136281 6343:11.618286 6391:8.6166601 6597:1.2658482 6722:0.83240926 6790:5.521461 6806:5.7853317 6866:8.8456974 7030:1.2207799 7073:5.6051269 7149:0.2600669 7339:2.5770218 7421:2.2164073 7481:55.214252 7570:1.7259717 7654:0.77870506 7688:3.9633162 7746:46.473145 7831:29.630478 7878:17.23332 8287:2.2443161 8620:4.9618449 8839:1.6832944 9173:3.270169 9258:4.519341 9328:1.4961092 9497:1.5095925 9637:0.94963038 9748:0.86512244 9887:12.796463 9948:1.7778566 10028:7.4308152 10579:1.9560157 10724:1.476289 11065:0.89404011 11152:2.2650678 11276:3.0576077 11468:1.5473298 12395:3.3813949 12472:2.4889147 12605:10.995489 13153:1.5464631 13226:10.231992 13237:1.130103 13281:0.731888 13447:3.8167129 13574:4.0651159 13681:0.87227386 13820:1.3363005 13857:0.99967235 14158:1.9669989 14265:0.50087529 14449:2.7408421 14484:0.36650291 15114:2.6310892 15206:6.2021856 15430:4.4228487 15459:3.8632329 16167:3.5038872 16538:2.2633643 16547:3.6157777 # Lou Reed
-2.0006791503086926561818387204639e-05 116:6.2146082 129:5.521461 286:3.473768 409:3.4112477 528:2.5133061 692:1.0498221 714:5.2983174 987:5.8091431 1030:5.521461 1229:5.8091431 1386:6.2146082 1532:6.2146082 1660:40.235378 1735:5.8091431 1895:5.1159959 1965:2.0174062 1971:0.6311118 2179:4.6051702 2356:1.0328245 2449:2.3330443 2492:1.6094379 3163:6.2146082 3180:4.50986 3226:6.9718771 3239:6.2146082 3635:6.2146082 3842:6.2146082 3900:6.2146082 4209:5.1159959 4300:0.80743635 4457:6.5261598 4632:5.8091431 4691:4.074542 4873:1.2173958 5028:6.2146082 5105:5.521461 5397:4.6051702 5492:3.6903205 5746:74.063225 6183:5.521461 6285:17.427429 6295:1.1481769 6480:6.2146082 6714:4.6051702 7149:0.52013379 7523:6.2146082 7543:5.521461 7627:17.427429 7853:5.8091431 8045:6.2146082 8130:5.8091431 8186:6.2146082 8463:5.8091431 8579:1.6873995 8598:2.6310892 8751:1.8426065 8839:73.223305 8847:5.1159959 8951:4.074542 9192:2.5770218 9637:0.94963038 9861:6.2146082 9887:0.50679064 9936:6.2146082 10254:3.7722611 10889:5.521461 11029:5.8091431 11065:0.89404011 11152:76.257278 11227:5.8091431 11468:0.45509699 11535:4.4228487 12078:6.2146082 12276:4.3428059 12509:4.2686977 12623:5.8091431 12804:4.1351666 13223:5.521461 13438:18.643824 13452:1.5558971 13616:8.3994102 13758:5.8091431 13820:0.33407512 14120:49.374954 14265:0.50087529 14449:2.7408421 14484:0.36650291 14623:6.2146082 14625:6.2146082 15042:1.7778566 15063:0.66943067 15114:2.6310892 15241:6.2146082 15267:5.2983174 16018:5.8091431 16154:5.3424048 16226:5.521461 16567:4.2686977 16698:4.6051702 16708:1.9510202 # Ben Howard
-2.0006791503086926561818387204639e-05 102:1.4229584 144:2.4191189 466:19.233635 515:59.343071 637:5.8347321 729:4.0173836 811:3.8632329 950:6.1438284 1049:5.8091431 1096:6.2146082 1288:4.4228487 1660:0.51583815 1711:4.7105308 1822:1.1907276 1875:2.6310892 2199:5.8091431 2268:2.1202636 2492:3.2188759 2911:6.2146082 3075:18.643824 3226:69.718773 3362:5.521461 3423:5.521461 3493:12.429216 3949:1.1363142 4251:4.6051702 4300:0.80743635 4457:13.777449 4592:2.5770218 4631:4.9618449 4815:4.8283138 4873:1.2173958 4917:6.2146082 5216:4.1997051 5378:6.2146082 5746:51.274544 6134:0.32711613 6147:2.6882477 6295:1.9136281 6376:5.521461 6649:5.2983174 6906:1.2517635 7149:0.52013379 7438:4.0173836 7570:1.7259717 7654:9.3444605 8164:2.8302178 8454:3.6496587 8598:2.6310892 8751:0.92130327 8839:5.8915305 9106:25.553465 9157:6.7627897 9300:6.2146082 9328:1.4961092 9637:2.848891 9718:8.1490841 9820:2.5383074 9833:5.3185201 9842:5.521461 9887:0.7601859 9958:16.933832 10888:4.2686977 11107:27.536156 11152:76.257278 11290:5.521461 11468:0.81917459 11673:1.0817552 11702:5.8091431 11922:4.9618449 12340:2.4146235 12388:6.2146082 12448:6.2146082 12670:6.2146082 13024:8.582325 13285:5.521461 13298:6.2146082 13332:5.8091431 13695:6.2146082 13820:0.33407512 14120:139.1476 14265:0.50087529 14348:27.536156 14484:0.48867053 14709:3.8632329 14752:4.4228487 14866:11.066638 15042:1.7778566 15063:0.66943067 15190:3.8632329 15564:2.3126354 15624:4.7289209 15992:6.2146082 16154:4.0068035 16250:5.8091431 16349:3.6888795 16361:11.618286 16490:4.074542 16708:2.9265304 16794:6.2146082 # Noah and the Whale
-2.0006791503086926561818387204639e-05 53:3.0365543 102:1.4229584 144:2.4191189 209:4.8283138 300:2.4418471 515:3.2968373 602:4.0348125 692:1.0498221 818:3.9633162 950:2.0479429 1253:2.5133061 1302:0.80296206 1365:0.99967235 1660:34.045319 1971:63.74229 2189:5.8091431 2356:2.065649 2492:3.2188759 2912:3.5065579 2977:8.0347672 3148:0.449417 3267:3.3813949 3361:5.1159959 4010:3.1941831 4300:0.80743635 4457:12.182165 4592:2.5770218 4675:0.26526847 4873:1.2173958 4927:6.2146082 5230:2.6736488 5481:2.7488723 5746:107.10682 5890:8.5373955 6134:0.32711613 6722:0.83240926 6906:13.769398 7081:4.7105308 7149:1.0402676 7277:10.825242 7363:4.7105308 7390:2.8302178 7646:2.5010359 7654:47.501011 7964:5.521461 8027:6.2146082 8287:2.2443161 8839:2.5249417 9047:14.885535 9192:2.5770218 9328:1.4961092 9637:1.8992608 9748:0.86512244 9833:5.3185201 9869:6.2146082 9887:0.38009295 10922:3.8632329 11065:0.89404011 11152:2.2650678 11236:0.62175721 11357:29.045715 11384:3.6119184 11444:2.8302178 11468:1.365291 11576:3.0365543 11673:1.0817552 11694:4.8283138 11783:2.8647039 12340:2.4146235 12497:4.074542 12531:4.074542 12560:2.3434072 12644:6.3979502 13024:8.582325 13820:0.33407512 13857:0.99967235 13920:3.2968373 14265:1.0017506 14389:5.1159959 14418:3.8167129 14449:1.3704211 14484:3.298526 14536:3.8167129 14752:8.8456974 14771:3.3242364 14850:2.0479429 14922:6.2146082 15063:1.3388613 15114:2.6310892 15374:5.8091431 15375:3.6903205 15564:2.3126354 15624:2.3644605 15928:6.2146082 16039:1.2694006 16154:5.3424048 16441:5.2983174 16476:14.668997 16507:6.2146082 16708:2.9265304 # Kate Nash
-4.9607533581235732194876855705168e-06 405:3.8167129 486:9.8245249 506:30.695974 528:2.5133061 627:11.618286 999:12.429216 1138:6.2146082 1343:84.157387 1365:0.99967235 1660:35.076996 1741:6.2146082 1895:5.1159959 1995:24.858433 2169:12.429216 2252:5.521461 2356:1.0328245 2492:1.6094379 2834:9.9236898 2966:12.429216 2977:4.0173836 3226:3.4859385 3528:3.9120231 3949:2.2726283 4457:2.3204124 4514:12.429216 4561:6.2146082 4583:6.2146082 4675:0.26526847 4846:0.7940731 4873:1.2173958 4942:5.2983174 5697:6.2146082 5726:6.2146082 5746:97.991348 5870:6.2146082 5921:6.2146082 6295:5.7408843 6402:6.2146082 6627:3.5404594 6738:6.2146082 6906:1.2517635 7149:0.2600669 7372:6.2146082 7464:6.2146082 7481:0.67334455 7654:2.3361151 8192:4.2686977 8751:0.92130327 8839:85.006363 8984:5.8091431 9219:5.2983174 9748:6.9209795 9833:2.65926 9887:0.25339532 10381:5.2983174 10684:4.074542 10775:11.042922 10804:4.9618449 10849:4.2686977 10921:5.521461 11087:6.2146082 11152:10.570316 11236:0.62175721 11468:1.5473298 11679:5.8091431 11773:6.2146082 11935:6.2146082 11980:5.1159959 12340:9.658494 12473:6.2146082 12509:4.2686977 12578:11.618286 12610:5.7294078 12712:3.7297015 12804:4.1351666 13012:5.2983174 13237:1.130103 13261:2.8878469 13350:1.4396951 13488:4.50986 13610:6.9991331 13860:5.2983174 14120:20.198845 14349:6.2146082 14410:6.2146082 14449:4.1112628 14484:1.2216763 14755:4.8283138 14866:7.377759 14995:6.2146082 15063:1.3388613 15357:6.2146082 15624:2.3644605 15637:174.27429 16154:2.6712024 16201:2.6736488 16204:4.7105308 16500:6.2146082 16708:1.9510202 16764:4.6051702 # Ed Sheeran
2.0006791503086926561818387204639e-05 53:3.0365543 102:1.4229584 185:3.9120231 299:4.0173836 646:3.6119184 1365:0.99967235 1462:0.60330647 1709:11.601688 1822:1.1907276 2076:25.805542 2440:3.0365543 2874:2.0433025 2980:18.842123 3148:0.449417 3265:4.9618449 3434:5.8091431 4300:0.80743635 4457:0.5801031 4579:81.240173 4592:2.5770218 4618:3.1465552 4641:11.625118 4675:26.792116 4826:3.0576077 4873:1.2173958 5331:31.562412 5492:1.8451602 5508:2.3330443 5880:3.4420195 6111:2.9759297 6134:0.32711613 6142:3.8167129 6295:0.38272563 6362:4.9618449 6491:5.1159959 6557:3.4112477 6597:1.2658482 6733:6.2146082 6801:3.7297015 6908:1.9241487 7073:0.80073237 7149:0.52013379 7333:2.2827826 7591:24.858433 7612:4.6051702 7654:0.77870506 7823:2.8134108 7907:9.0197201 7909:1.9173226 7925:2.0099156 7953:3.2968373 8207:2.0174062 8212:5.2983174 8802:5.1159959 8891:3.6496587 8948:5.521461 8958:4.2911625 9659:192.7395 9709:11.316783 9825:4.1351666 9887:0.12669766 9930:46.043961 9948:1.7778566 10288:5.0070539 10703:13.268546 11079:4.9618449 11201:6.8840389 11338:3.2441936 11406:14.978662 11408:1.8773173 11460:6.2146082 11468:0.091019399 11631:4.8283138 11921:4.8283138 12000:3.9633162 12045:20.376539 12237:4.1997051 12629:6.5936747 12734:6.2146082 12759:3.6496587 12776:4.7105308 13018:15.182772 13138:6.2146082 13281:0.731888 13517:4.9618449 13887:4.0173836 14484:0.12216763 14998:2.9759297 15059:4.1997051 15063:0.66943067 15221:4.7105308 15404:3.4974 15624:2.3644605 15738:5.521461 15813:2.1715569 15834:5.521461 15919:3.2188759 15929:5.8091431 16612:6.2146082 16637:2.6172957 # Justice
2.0006791503086926561818387204639e-05 185:3.9120231 334:14.86163 442:2.5510464 486:0.81871039 551:4.9618449 666:4.4228487 961:4.4228487 1357:4.3428059 1365:0.99967235 1567:6.2146082 1709:2.9004221 1822:1.1907276 1971:0.6311118 2076:173.75732 2449:2.3330443 2760:2.8473122 2814:6.2146082 3076:1.9449106 3098:5.521461 3148:0.449417 3277:5.521461 3348:2.7181005 3510:6.2146082 3719:6.2146082 3965:4.3428059 4029:6.2146082 4147:5.8091431 4300:0.80743635 4457:0.14502577 4458:6.2146082 4579:65.258499 4641:8.3036556 4675:21.752016 4826:3.0576077 4873:1.2173958 5017:6.2146082 5263:5.1159959 5331:4.2487864 5508:4.6660886 6090:4.2686977 6134:0.32711613 6142:3.8167129 6550:2.6172957 6780:2.8302178 6801:3.7297015 6806:0.52593929 6908:19.241488 6930:260.3674 7073:0.80073237 7149:0.2600669 7305:106.3704 7333:2.2827826 7504:21.624502 7727:4.3428059 7781:6.2146082 7823:2.8134108 7860:6.2146082 8060:4.8283138 8558:3.270169 8579:1.6873995 8608:4.9618449 8695:4.8283138 8859:5.521461 8875:4.7105308 9080:2.9187713 9154:4.2686977 9190:5.1159959 9621:6.2146082 9903:6.0318699 10422:19.083565 11406:35.948788 11468:0.091019399 11590:3.9633162 11826:6.2146082 12045:4.4573679 12225:5.2983174 12237:4.1997051 12300:5.1159959 12704:6.2146082 12837:33.128765 13108:5.2983174 13887:4.0173836 14256:4.7105308 14381:6.9038868 14484:0.12216763 15010:1.4524342 15018:4.4228487 15063:1.3388613 15250:4.3428059 15453:7.5445223 15580:2.6172957 15632:6.2146082 15738:5.521461 15767:3.473768 16039:1.2694006 16064:4.6051702 16791:5.521461 16826:17.074791 16871:4.3428059 16922:4.8283138 # deadmau5
1.2766361370613369294563059497261e-05 133:17.427429 143:14.755518 185:7.8240461 239:10.231992 334:37.154076 609:9.4210615 1357:8.6856117 1965:4.0348125 2076:36.127758 2152:14.447674 2874:2.0433025 3102:10.596635 3134:18.643824 3148:0.89883399 3515:10.835755 3692:12.429216 4229:12.429216 4300:0.80743635 4318:12.429216 4374:11.618286 4579:23.972511 4641:3.3214624 4675:26.792116 5221:9.6566277 5331:44.308773 5360:9.0197201 6279:24.858433 6518:24.858433 6590:10.231992 6604:12.429216 6825:24.858433 7149:0.52013379 7868:24.858433 7907:18.03944 8745:10.231992 8751:2.7639098 8875:9.4210615 8958:4.2911625 9393:8.0347672 9659:145.39998 9709:7.5445223 9948:3.5557132 10367:9.4210615 10703:48.651337 11074:22.114243 11236:1.2435144 11406:50.927448 11408:3.7546346 11842:12.429216 11921:236.58737 12045:3.1838343 12536:9.9236898 13761:42.386539 14063:11.042922 14484:0.48867053 14908:9.6566277 15359:16.79882 15404:15.738299 15651:18.643824 15919:6.4377518 16216:34.854858 16639:24.858433 16871:225.82591 # Madeon
2.0006791503086926561818387204639e-05 606:11.042922 660:5.8091431 1478:3.8632329 1537:5.1159959 1598:16.564383 1660:0.51583815 1690:1.0356375 1748:2.2633643 1822:4.7629104 1971:0.6311118 1976:4.7289209 2049:18.842123 2055:6.2146082 2076:10.322217 2354:5.521461 2674:6.2146082 2775:4.8283138 3076:1.9449106 4300:0.80743635 4457:0.5801031 4541:12.429216 4579:89.23101 4675:24.139431 4746:4.1997051 4846:6.3525848 5095:8.5454597 5110:5.521461 5276:149.15059 5331:1.213939 5569:2.198225 6088:3.8167129 6373:4.0804415 6382:6.2146082 6658:6.2146082 6714:4.6051702 6788:6.2146082 7000:6.2146082 7277:1.5464631 7333:4.5655651 7358:3.5755508 7603:5.2983174 7907:9.0197201 8301:17.691395 8454:7.2993174 8751:3.6852131 8958:4.2911625 9172:5.1159959 9258:1.8077364 9545:6.2146082 9637:0.47481519 9659:213.02786 9709:7.5445223 9887:0.12669766 10210:6.2146082 10288:5.0070539 10504:2.3751557 10703:13.268546 10724:2.2144337 10938:2.0479429 11074:22.114243 11128:17.427429 11406:5.9914646 11408:189.60905 11468:0.091019399 11566:8.7570257 11632:5.1805344 12045:3.1838343 12187:9.9236898 12644:1.5994875 12724:6.2146082 13020:22.085844 13200:5.8091431 13678:3.5065579 13710:5.2983174 13820:0.66815025 13901:12.429216 14301:9.6566277 14416:4.7105308 14484:0.36650291 15010:1.4524342 15063:0.66943067 15103:5.8091431 15404:15.738299 16039:1.2694006 16254:4.4228487 16349:3.6888795 16357:3.3242364 16532:12.429216 16540:6.2146082 16629:6.2146082 16706:14.72614 16885:7.8110704 # College
2.0006791503086926561818387204639e-05 22:12.429216 81:9.2373419 286:3.473768 353:6.2146082 442:2.5510464 613:24.810999 1210:6.2146082 1365:1.9993447 1378:6.2146082 1472:5.521461 1660:0.51583815 1822:1.1907276 1965:4.0348125 2107:10.596635 2246:1.7372713 2247:5.1159959 2354:5.521461 2449:4.6660886 2451:6.2146082 2480:5.521461 2592:3.6496587 3184:6.2146082 3185:6.2146082 3226:88.891434 3542:3.5404594 3625:5.8091431 3832:5.521461 3965:4.3428059 4281:12.429216 4300:1.6148727 4410:3.6119184 4457:14.357552 4630:9.6566277 4694:6.2146082 4825:5.8091431 5105:5.521461 5196:3.1235657 5234:31.07304 5425:6.2146082 5497:10.231992 5746:11.394342 5846:6.2146082 6033:6.2146082 6147:2.6882477 6259:368.61554 6295:1.9136281 6722:0.83240926 6906:2.5035269 6910:26.10791 7149:1.0402676 7654:5.4509354 7838:6.2146082 7856:4.8283138 8110:5.8091431 8328:4.4886322 8464:3.6119184 8579:3.374799 8608:4.9618449 8651:6.2146082 8751:0.92130327 8828:10.596635 8839:2.5249417 8988:2.8647039 9097:4.39645 9098:5.2983174 9130:6.2146082 9629:6.2146082 9637:43.682999 9668:3.2968373 9820:2.5383074 9887:1.9004648 9965:6.2146082 10504:2.3751557 11065:0.89404011 11152:51.341537 11468:1.2742716 12057:4.3428059 12157:12.429216 13010:5.8091431 13133:4.50986 13167:7.7264657 13428:4.8283138 13542:6.2146082 13820:1.0022253 13955:5.521461 14120:33.664742 14484:0.48867053 14537:4.9618449 14709:3.8632329 14738:4.2686977 14806:6.2146082 15035:6.2146082 15042:3.5557132 15063:0.66943067 15327:5.8091431 15624:4.7289209 15750:5.2983174 16102:11.042922 16154:2.6712024 16251:6.2146082 # Frightened Rabbit
-2.0006791503086926561818387204639e-05 102:1.4229584 222:2.7030628 239:5.1159959 345:6.2146082 486:0.81871039 846:3.0365543 950:2.0479429 1253:2.5133061 1619:5.8091431 1660:0.51583815 1709:23.203377 1912:6.2146082 1971:33.448925 2076:1.7203695 2760:2.8473122 2894:1.8515095 2939:5.1159959 2980:18.842123 3445:6.2146082 4042:4.7105308 4300:0.80743635 4457:1.4502578 4555:6.2146082 4579:58.599472 4592:2.5770218 4641:1.6607312 4675:23.608894 5260:6.2146082 5331:6.069695 5508:4.6660886 5847:6.2146082 5975:4.6051702 6111:2.9759297 6239:5.521461 6499:6.2146082 7114:14.131592 7128:6.2146082 7149:0.52013379 7277:4.6393895 7654:1.5574101 7925:6.0297465 8207:2.0174062 8525:4.4228487 8751:0.92130327 8958:2.1455812 9129:5.1159959 9331:6.2146082 9659:341.52087 9709:30.178089 9738:8.1543016 9825:16.540667 9833:2.65926 9948:1.7778566 9991:31.07304 10504:2.3751557 10789:3.5755508 11043:4.7105308 11338:3.2441936 11408:9.3865871 11429:6.2146082 11468:0.3640776 11577:4.2686977 11693:4.8283138 11696:3.9633162 11726:31.07304 11790:6.2146082 12045:4.4573679 12644:3.1989751 12776:4.7105308 12987:6.2146082 13018:9.109663 13156:6.2146082 13196:4.7105308 13237:1.130103 13350:4.3190856 13524:5.2983174 13589:6.2146082 13678:3.5065579 13857:0.99967235 13858:5.521461 13944:6.2146082 14038:3.9633162 14301:9.6566277 14364:6.2146082 14409:5.1159959 14476:4.3428059 14484:2.0768497 15042:1.7778566 15059:4.1997051 15063:0.66943067 15173:2.5510464 15375:3.6903205 15404:122.409 16039:2.5388012 16082:6.2146082 16201:5.3472977 16362:5.7648072 16679:3.8632329 16706:2.1037343 16787:6.2146082 # Yelle
-8.9620935874224575285731594909144e-06 334:165.95488 1190:281.59451 1923:26.608604 1965:18.156656 2076:173.75732 4300:0.80743635 4579:78.576561 4675:13.528692 5331:30.955444 5508:20.997398 5634:55.931473 6930:199.50229 9401:30.432552 11406:152.78235 12045:16.555939 12237:37.797344 12579:55.931473 13954:55.931473 14022:215.66467 14484:1.0995088 14899:36.156452 # CAZZETTE
-4.3175974643265699280986918452696e-07 409:6.8224955 486:65.496834 667:11.189104 1302:8.8325825 1356:12.429216 1739:18.643824 2874:3.0649538 3234:121.992 4300:0.80743635 4457:0.43507731 4579:14.649868 4675:12.732887 4826:21.403254 4962:31.789904 5331:1.213939 5395:12.429216 5651:12.429216 6134:0.65423226 6225:12.429216 6917:11.618286 7934:8.1490841 8751:5.5278196 9080:17.512627 9116:12.429216 9487:12.429216 9659:256.98599 10147:12.429216 10619:285.87198 10652:12.429216 11359:10.231992 12258:12.429216 13350:18.716036 13670:4.4328146 14301:9.6566277 15010:4.3573027 15507:5.4061255 15807:424.17023 15896:12.429216 16357:6.6484728 16878:31.07304 # C2C
-1.3484765523813844104021077152655e-05 49:6.2146082 53:3.0365543 102:1.4229584 143:7.377759 660:5.8091431 692:1.0498221 695:6.2146082 1019:1.9951004 1302:0.80296206 1593:6.2146082 1687:4.9618449 1690:1.0356375 1709:2.9004221 1923:2.9565115 1965:2.0174062 1971:0.6311118 2076:173.75732 2080:4.9618449 2353:1.7203695 2608:2.1715569 2611:4.1351666 2781:6.2146082 2874:7.1515589 2980:4.7105308 3222:4.50986 3945:6.2146082 4457:0.43507731 4579:10.654449 4592:5.1540437 4641:9.9643869 4675:18.038256 4749:6.2146082 4826:9.172823 4960:6.2146082 5112:1.5417793 5331:33.990292 5508:72.324371 5569:6.5946751 6246:5.8091431 6295:0.38272563 6415:6.2146082 6872:6.2146082 6908:3.8482974 6930:3.3813949 7149:0.2600669 7457:6.2146082 7494:6.2146082 7654:0.77870506 7872:4.9618449 7882:6.2146082 7907:9.0197201 8207:2.0174062 8316:8.0347672 8579:1.6873995 8967:5.1278996 9126:6.2146082 9659:142.01859 9709:7.5445223 9738:2.7181005 9748:0.86512244 9825:4.1351666 9887:0.12669766 9948:1.7778566 10212:6.2146082 10262:6.2146082 10703:13.268546 10859:3.5065579 10938:2.0479429 11468:0.1820388 11921:4.8283138 11957:5.1159959 12045:7.0044355 12087:5.1159959 12198:4.7105308 12417:6.2146082 12586:13.815511 12776:4.7105308 12933:3.3242364 13528:5.2983174 13887:4.0173836 13942:6.2146082 14158:0.98349947 14301:9.6566277 14381:1.7259717 14484:0.97734106 14873:6.2146082 15010:1.4524342 15063:1.3388613 15208:16.564383 15404:3.4974 15434:6.2146082 15453:7.5445223 15600:6.2146082 15737:4.8283138 15834:5.521461 15919:3.2188759 16201:2.6736488 16357:3.3242364 16573:31.07304 16871:21.714029 # Martin Solveig
-8.6947523745734146122503965825601e-06 120:4.7105308 131:6.2146082 150:2.0099156 185:3.9120231 191:6.2146082 334:7.4308152 367:5.521461 440:5.8091431 598:2.453408 666:4.4228487 702:6.2146082 707:4.6051702 1635:6.2146082 1965:2.0174062 2076:173.75732 2347:5.2983174 2353:1.7203695 2611:4.1351666 2751:5.521461 2932:6.2146082 3032:5.8091431 3076:1.9449106 3484:6.2146082 3515:3.6119184 3553:5.8091431 4129:6.2146082 4407:6.2146082 4532:6.2146082 4579:6.6590309 4641:3.3214624 4675:19.364599 4819:4.8283138 4826:9.172823 5331:35.811199 5492:1.8451602 5508:18.664354 5576:5.8091431 5604:6.2146082 5664:4.50986 6088:3.8167129 6239:5.521461 6479:6.2146082 6908:9.6207438 6930:185.97672 7031:6.2146082 7333:2.2827826 7442:6.2146082 8207:2.0174062 8334:11.618286 8375:5.8091431 8446:6.2146082 8705:6.2146082 8751:0.92130327 8878:6.2146082 8914:6.2146082 9301:4.9618449 9401:6.7627897 9670:6.2146082 9982:4.9618449 10208:6.2146082 10382:6.2146082 10422:15.266851 10545:6.2146082 11236:0.62175721 11264:6.2146082 11406:152.78235 11472:5.521461 11632:5.1805344 11711:24.858433 11803:6.2146082 12045:6.3676686 12837:5.521461 13205:5.521461 13274:6.2146082 13488:4.50986 13539:6.2146082 13663:5.2983174 13930:6.2146082 14009:6.2146082 14018:5.8091431 14022:45.064262 14381:1.7259717 14407:6.2146082 14437:4.7105308 14484:0.12216763 15063:0.66943067 15074:6.2146082 15250:4.3428059 15359:4.1997051 15453:7.5445223 15527:3.6496587 16059:6.2146082 16137:6.2146082 16349:3.6888795 16357:3.3242364 16417:4.7105308 16476:2.095571 16678:6.2146082 16826:4.2686977 16871:4.3428059 # Avicii
1.1640485439543572372916684087851e-05 281:5.8091431 375:3.8632329 446:2.0402207 465:1.4271164 754:2.7181005 1019:1.9951004 1168:1.5417793 1169:6.2146082 1221:3.5755508 1302:0.80296206 1431:8.1490841 1462:60.933952 1484:12.585189 1554:2.3025851 1627:3.5404594 1660:0.51583815 1690:1.0356375 2267:1.6450651 2419:9.9025078 2507:1.3242589 2535:1.7092582 2657:2.0794415 3006:339.41827 3148:0.449417 3448:2.3126354 3814:5.8091431 4077:21.505981 4090:3.0365543 4285:12.755232 4300:0.80743635 4445:6.2146082 4457:0.5801031 5066:0.87466908 5128:4.7105308 5333:2.9374633 5459:4.1588831 5570:2.0714734 6134:0.32711613 6295:0.76545125 6391:12.924991 6806:4.7334533 6866:22.114243 7030:1.2207799 7073:1.6014647 7149:0.2600669 7292:4.1351666 7421:2.2164073 7478:4.6051702 7481:12.793547 7654:0.77870506 7690:2.65926 7740:4.6051702 7831:20.915632 8047:5.1159959 8508:1.5702173 8620:9.9236898 8751:0.92130327 8826:12.429216 9173:3.270169 9258:0.9038682 9497:1.5095925 9637:0.94963038 9887:7.7285566 9958:2.4191189 10288:1.2517635 10579:1.9560157 11038:3.2968373 11152:0.75502259 11203:1.8904754 11259:3.1700857 11468:0.3640776 11566:2.1892564 11789:15.894952 11797:22.085844 12273:8.5373955 12426:5.8091431 12472:2.4889147 12605:2.7488723 12828:5.1159959 12846:6.2146082 12965:5.8091431 13071:11.736069 13082:11.066638 13153:1.5464631 13233:4.3428059 13281:0.731888 13359:3.3813949 13574:6.0976739 13820:0.66815025 13857:0.99967235 13995:2.1370707 14158:53.108971 14449:1.3704211 14484:0.12216763 15435:4.1351666 16039:1.2694006 16167:4.6718493 16538:185.59589 16638:3.6496587 16808:4.50986 # The Stooges
6.4839816957778120094183643695729e-06 465:2.8542328 1168:3.0835586 1302:0.80296206 1345:3.1941831 1462:6.6363711 1484:0.89894211 1660:1.0316763 1690:2.071275 1822:1.1907276 1916:2.3126354 1971:1.2622236 2246:1.7372713 2267:1.6450651 2356:1.0328245 2419:45.551537 2507:1.3242589 3006:277.37405 3065:3.3813949 3148:0.449417 3226:1.7429693 3448:23.126354 3724:29.918989 4077:2.6882477 4271:5.8375425 4285:5.1020927 4389:17.427429 4457:2.7554896 4675:0.26526847 5066:2.6240072 5095:1.2207799 5333:2.9374633 5459:2.0794415 5570:2.0714734 6134:0.65423226 6295:0.76545125 6343:29.045715 6391:56.008293 6722:0.83240926 6790:5.521461 6806:5.2593927 6866:13.268546 7030:1.2207799 7073:18.416845 7339:2.5770218 7481:62.621044 7654:0.77870506 7746:29.045715 7831:13.943754 7878:15.079156 8236:4.3428059 8328:2.2443161 8329:3.3524072 8620:14.885535 8723:4.0173836 8864:6.2146082 9106:6.3883662 9173:19.621016 9258:0.9038682 9274:5.521461 9497:3.0191851 9637:4.7481518 9887:12.796463 9920:12.429216 10028:24.769384 10579:1.3040105 10725:7.5445223 11065:0.89404011 11107:6.8840389 11152:1.5100452 11203:3.7809508 11236:0.62175721 11259:6.3401713 11276:3.0576077 11468:5.1881056 11836:12.429216 12045:0.63676685 12340:1.2073117 12605:10.995489 12828:5.1159959 13281:0.731888 13359:3.3813949 13447:7.6334257 13574:4.0651159 13681:0.87227386 13820:3.006676 13857:0.99967235 14158:1.9669989 14265:0.50087529 14348:6.8840389 14381:1.7259717 14449:1.3704211 14484:0.36650291 14817:4.3428059 15206:6.2021856 15320:12.429216 15459:3.8632329 16167:107.45254 16538:11.316822 16547:1.8078889 16638:3.6496587 # The Velvet Underground
2.0006791503086926561818387204639e-05 102:1.4229584 150:2.0099156 465:2.8542328 466:2.1370707 486:0.81871039 602:2.0174062 1019:1.9951004 1302:0.80296206 1462:1.2066129 1484:0.89894211 1660:0.51583815 1690:1.0356375 1822:1.1907276 1971:0.6311118 2246:1.7372713 2356:1.0328245 2492:3.2188759 2510:5.9518595 2874:1.0216513 3148:0.449417 3367:6.2146082 3503:5.521461 3724:2.1370707 3770:3.1010928 3897:3.3524072 3949:1.1363142 4023:4.50986 4457:7.9764175 4579:1.3318062 4675:0.53053695 4846:0.7940731 4873:1.2173958 5066:0.87466908 5095:1.2207799 5331:0.60696948 5394:4.9618449 5481:8.2466164 5570:2.0714734 5746:55.832279 6111:2.9759297 6134:0.32711613 6147:2.6882477 6295:0.76545125 6634:3.6119184 6722:0.83240926 6906:126.42811 7030:1.2207799 7073:1.6014647 7149:0.2600669 7390:2.8302178 7454:1.9805017 7481:0.67334455 7654:2.3361151 7771:6.2146082 7984:1.5847453 8328:2.2443161 8839:0.84164721 9258:0.9038682 9637:7.1222277 9748:0.86512244 9887:7.8552547 10288:1.2517635 10428:4.2686977 10484:3.6888795 10564:5.5292411 10724:8.1195898 10732:2.5770218 11065:1.7880802 11152:0.75502259 11203:1.8904754 11236:0.62175721 11468:4.6419892 11673:1.0817552 12045:0.63676685 12340:1.2073117 12843:29.045715 13024:2.1455812 13237:1.130103 13261:1.4439235 13281:0.731888 13681:0.87227386 13820:6.6815023 13857:0.99967235 14013:4.8283138 14158:0.98349947 14265:0.50087529 14352:4.4228487 14449:1.3704211 14484:1.0995088 14789:2.7646205 15010:1.4524342 15063:0.66943067 15299:2.8473122 16154:5.3424048 16167:1.1679623 16456:11.618286 16538:2.2633643 16547:1.8078889 16708:1.9510202 16740:2.095571 # Blur
2.0006791503086926561818387204639e-05 21:5.521461 144:2.4191189 466:83.345757 594:3.8632329 637:1.9449106 680:6.2146082 692:1.0498221 807:8.5373955 986:4.8283138 1278:6.2146082 1345:15.970916 1462:0.60330647 1660:0.51583815 1918:6.2146082 1971:0.6311118 2338:5.8091431 2449:2.3330443 2592:3.6496587 2894:1.8515095 3148:0.449417 3226:6.9718771 3260:4.1997051 3965:4.3428059 4068:6.2146082 4104:5.2983174 4189:2.1628232 4300:0.80743635 4457:11.892114 4998:6.2146082 5126:12.429216 5166:6.2146082 5230:8.0209465 5742:6.2146082 5952:5.8091431 6030:6.2146082 6134:0.32711613 6295:0.76545125 6519:6.2146082 6806:5.7853317 7008:5.2983174 7073:2.4021971 7100:1.9519283 7149:0.52013379 7615:6.2146082 7654:35.041729 7773:11.042922 8024:4.1997051 8164:2.8302178 8317:5.521461 8329:16.762035 8578:4.8283138 8579:1.6873995 8839:0.84164721 8959:6.2146082 9056:6.2146082 9067:6.2146082 9157:3.3813949 9637:2.848891 9717:4.8283138 9735:3.4420195 9820:5.0766149 9887:0.38009295 9958:7.2573566 10142:5.8091431 10282:6.2146082 10476:6.2146082 10579:1.3040105 10753:6.2146082 11152:76.257278 11203:1.8904754 11249:5.521461 11468:0.81917459 11488:2.9759297 11673:1.0817552 12235:2.6172957 12340:1.2073117 13567:6.2146082 13651:6.2146082 13820:0.33407512 13839:6.2146082 14025:6.2146082 14075:6.2146082 14120:141.39192 14265:0.50087529 14484:0.36650291 14712:3.3242364 14803:6.2146082 14832:6.2146082 15049:6.2146082 15063:0.66943067 15392:4.7105308 15505:12.429216 15624:4.7289209 15850:6.2146082 16076:13.895072 16167:2.3359246 16489:4.2686977 16804:6.2146082 16849:6.2146082 16885:2.6036901 # Edward Sharpe & The Magnetic Zeros
2.0006791503086926561818387204639e-05 486:0.81871039 1019:1.9951004 1214:2.5257287 1246:4.9618449 1253:2.5133061 1302:65.842888 1365:0.99967235 1533:5.8091431 1547:6.2146082 1660:18.054337 1971:44.808937 2267:1.6450651 2356:1.0328245 2492:3.2188759 2507:9.2698126 2608:2.1715569 2834:4.9618449 2874:9.1948614 2937:5.521461 2945:4.6051702 3148:0.449417 3338:4.1997051 3457:6.2146082 3561:6.2146082 3707:3.1235657 4189:2.1628232 4457:0.29005155 4873:1.2173958 4879:7.9510975 4981:6.2146082 5112:7.7088962 5204:6.2146082 5569:2.198225 5587:2.6310892 5647:5.2983174 5746:56.971714 5902:3.3813949 6001:4.7105308 6134:0.32711613 6196:11.618286 6722:0.83240926 6758:7.7708015 6906:1.2517635 7149:0.78020072 7150:4.1997051 7277:6.1858525 7334:5.8091431 7646:2.5010359 7654:0.77870506 8688:3.270169 8715:44.171688 9004:6.2146082 9328:1.4961092 9523:4.3431139 9748:87.377365 9887:0.25339532 9948:1.7778566 9989:5.8091431 10127:4.3428059 10135:2.9565115 10387:4.7105308 11052:3.6888795 11236:0.62175721 11279:5.2983174 11468:0.27305821 11500:5.8091431 11673:1.0817552 12263:5.8091431 12294:3.9633162 12330:2.9759297 12340:1.2073117 12531:4.074542 12614:24.292435 12644:4.7984629 13024:2.1455812 13079:5.521461 13099:4.50986 13188:2.1455812 13350:1.4396951 13447:3.8167129 13559:2.2164073 13650:5.1159959 13857:0.99967235 14249:10.233743 14265:0.50087529 14484:1.4660116 14850:2.0479429 15063:1.3388613 15278:2.7181005 15375:1.8451602 15949:5.8091431 16039:2.5388012 16154:4.0068035 16214:2.9957323 16357:3.3242364 16403:6.2146082 16708:0.97551012 16740:4.1911421 16837:8.0347672 16842:6.2146082 # Amy Winehouse
-2.0006791503086926561818387204639e-05 272:5.2983174 442:5.1020927 465:1.4271164 520:2.7968814 524:4.8283138 613:4.1351666 657:1.9310216 1110:2.2164073 1163:3.6496587 1365:0.99967235 1462:1.2066129 1484:3.5957685 1660:0.51583815 1690:1.0356375 1822:1.1907276 1965:2.0174062 2178:4.6051702 2246:1.7372713 2410:4.1997051 3148:0.89883399 3323:5.8091431 3348:2.7181005 3724:2.1370707 3750:6.2146082 3949:1.1363142 4223:12.429216 4234:6.2146082 4300:1.6148727 4457:8.7015467 4675:0.53053695 4846:6.3525848 4873:1.2173958 5066:6.9973526 5262:2.4651041 5309:30.58683 5492:1.8451602 5494:5.913023 5570:2.0714734 5746:15.95208 6134:0.32711613 6147:2.6882477 6184:3.6888795 6259:208.03055 6278:3.473768 6295:0.76545125 6363:3.9633162 6597:1.2658482 6722:0.83240926 6731:5.0514574 6906:1.2517635 6910:11.189104 7030:2.4415598 7073:3.2029295 7149:1.0402676 7358:7.1511016 7438:4.0173836 7454:1.9805017 7481:0.67334455 7654:0.77870506 7984:3.1694906 8287:2.2443161 8573:2.9565115 8807:6.2146082 8988:2.8647039 9097:2.198225 9173:3.270169 9393:4.0173836 9637:11.395564 9836:3.1010928 9887:12.162974 9972:12.429216 10028:4.953877 10288:1.2517635 10360:4.2686977 10464:2.9759297 10564:2.7646205 10732:2.5770218 10736:3.473768 10888:4.2686977 11065:0.89404011 11468:6.6444159 11665:5.2983174 12105:6.3883662 12488:4.4228487 12904:24.858433 13281:2.1956639 13427:2.9374633 13820:33.741585 14158:0.98349947 14276:2.0794415 14344:9.2103405 14381:5.1779151 14484:0.12216763 14709:3.8632329 14789:2.7646205 14917:5.1159959 15306:2.7030628 16154:4.0068035 16538:2.2633643 16722:4.5075898 # Biffy Clyro
-3.4383187712494454676298051565286e-06 102:1.4229584 161:2.0557251 300:2.4418471 528:5.0266123 613:4.1351666 692:1.0498221 1019:3.9902008 1217:5.521461 1302:3.2118483 1365:1.9993447 1660:52.099655 1968:2.4769385 2175:5.521461 2338:5.8091431 2353:1.7203695 2356:1.0328245 2507:5.2970357 2874:5.1082563 3148:1.348251 3180:4.50986 3226:1.7429693 3330:16.933832 3532:3.8632329 3897:3.3524072 3949:2.2726283 4078:5.8091431 4189:2.1628232 4300:0.80743635 4457:13.342371 4592:5.1540437 4873:2.4347916 4969:2.1715569 5007:3.9120231 5135:5.1159959 5331:0.60696948 5492:1.8451602 5569:2.198225 5746:23.92812 6134:0.65423226 6259:204.38089 6295:16.074476 6386:5.521461 6597:2.5316963 6906:6.2588172 6910:11.189104 7073:0.80073237 7149:0.78020072 7390:2.8302178 7471:4.6051702 7654:4.6722302 7715:4.8283138 8688:6.540338 8839:14.308002 8958:2.1455812 8988:2.8647039 9051:5.1159959 9139:4.2686977 9328:2.9922185 9523:2.1715569 9637:2.848891 9748:16.437326 9868:3.3524072 9887:1.7737671 9948:8.8892832 10305:5.8091431 10361:4.50986 10938:2.0479429 10995:5.8091431 11052:3.6888795 11065:3.5761604 11109:7.6334257 11152:5.2851582 11468:1.365291 11558:6.2146082 11576:3.0365543 11614:13.815511 11632:2.5902672 12330:5.9518595 12340:2.4146235 12380:6.2146082 12444:49.716866 12561:4.7105308 13007:3.5755508 13261:1.4439235 13281:1.463776 13452:1.5558971 13820:1.3363005 14265:0.50087529 14449:2.7408421 14484:6.2305493 15063:2.008292 15114:2.6310892 15527:3.6496587 15729:6.2146082 15737:4.8283138 15904:3.2188759 16039:1.2694006 16154:2.6712024 16476:2.095571 16736:6.2146082 # Paolo Nutini
-3.9419777957030624794001159860724e-06 207:27.631021 334:14.86163 486:27.017443 547:6.2146082 556:6.2146082 645:6.2146082 704:6.2146082 790:7.7264657 942:6.2146082 1110:2.2164073 1313:5.8091431 1369:5.8091431 1461:12.429216 1586:4.7105308 1822:1.1907276 1965:2.0174062 2083:5.8091431 2971:6.2146082 3142:5.8091431 3148:0.449417 3230:6.2146082 3369:6.2146082 3387:11.618286 3462:6.2146082 3747:6.2146082 3954:5.521461 4457:0.14502577 4579:3.9954185 4641:1.6607312 4675:21.486746 4678:6.2146082 4826:3.0576077 4909:6.2146082 5062:6.2146082 5331:1.213939 5591:5.3764954 6088:3.8167129 6118:6.2146082 6223:4.1351666 6384:6.2146082 6505:4.3428059 6557:344.53601 6578:6.2146082 6597:2.5316963 6770:6.2146082 6780:5.6604357 6806:2.1037571 6908:1.9241487 6919:5.8091431 6990:6.2146082 6995:5.8091431 7073:1.6014647 7149:0.2600669 7333:127.83582 7467:6.2146082 7795:5.8091431 7925:2.0099156 8207:2.0174062 8211:6.2146082 8638:6.2146082 9080:14.593856 9448:6.2146082 9668:3.2968373 9802:5.8091431 9863:9.9236898 11468:0.091019399 11483:24.858433 11526:11.618286 12045:3.820601 12069:6.2146082 12074:6.2146082 12198:4.7105308 12224:5.8091431 12393:5.521461 12445:18.643824 12941:22.900276 13133:4.50986 13153:1.5464631 13197:4.8283138 13237:1.130103 13310:6.2146082 13337:5.0020719 13350:5.7587805 13588:3.8167129 13701:6.2146082 13829:6.2146082 14026:268.78583 14043:12.429216 14177:6.2146082 14332:4.1997051 15010:2.9048684 15443:5.8091431 15496:6.2146082 15818:6.2146082 15837:2.5257287 15923:6.2146082 16288:5.8091431 16600:4.50986 16637:2.6172957 16920:6.2146082 # The Glitch Mob
-1.4933975956672586616886914956392e-05 102:5.6918335 113:2.2827826 137:5.8091431 144:4.8382378 150:2.0099156 161:2.0557251 222:2.7030628 602:2.0174062 692:1.0498221 950:12.287657 1660:3.0950289 2076:1.7203695 2315:5.1159959 2353:1.7203695 2356:1.0328245 2492:1.6094379 2618:5.8091431 2874:1.0216513 2894:1.8515095 2912:3.5065579 2977:4.0173836 3148:0.449417 3348:2.7181005 3949:2.2726283 4249:6.2146082 4285:5.1020927 4370:4.7105308 4457:0.5801031 4579:5.3272247 4641:1.6607312 4675:10.610739 4846:0.7940731 4873:1.2173958 5216:4.1997051 5331:8.4975729 5333:2.9374633 5481:2.7488723 5492:1.8451602 5494:5.913023 5746:60.390018 5915:2.1892564 6134:0.32711613 6147:2.6882477 6295:3.8272562 6722:0.83240926 6906:56.329357 7149:0.78020072 7390:2.8302178 7605:3.6888795 7654:3.1148202 7677:6.2146082 7840:5.2983174 7953:3.2968373 8067:4.7105308 8207:2.0174062 8730:6.2146082 8958:2.1455812 9328:1.4961092 9546:5.913023 9637:0.47481519 9659:3.3813949 9748:0.86512244 9833:2.65926 9887:0.38009295 9948:1.7778566 11065:2.6821203 11236:0.62175721 11408:1.8773173 11468:3.185679 11673:1.0817552 11694:4.8283138 11801:4.4228487 12045:1.2735337 12397:3.1941831 12418:11.618286 12759:3.6496587 12947:4.50986 13024:2.1455812 13261:1.4439235 13309:3.6119184 13820:0.33407512 13857:0.99967235 13998:5.8091431 14265:1.0017506 14389:5.1159959 14484:12.338931 14840:55.931473 15042:1.7778566 15062:5.8091431 15063:4.6860147 15243:8.2703333 15404:3.4974 15564:2.3126354 15904:3.2188759 16039:1.2694006 16154:4.0068035 16362:2.8824036 16476:4.1911421 16708:1.9510202 16722:6.761385 # Mika
-2.0006791503086926561818387204639e-05 46:42.394775 302:3.0159349 465:4.2813492 486:0.81871039 613:16.540667 1302:0.80296206 1462:1.2066129 1484:0.89894211 1674:4.0173836 1690:2.071275 1709:2.9004221 1822:1.1907276 1879:18.643824 1971:0.6311118 2076:10.322217 2117:4.1351666 2246:1.7372713 2419:7.9220066 2507:1.3242589 2510:2.9759297 2617:2.7488723 2702:3.473768 2874:1.0216513 3076:1.9449106 3897:3.3524072 4023:31.569019 4300:0.80743635 4457:12.762268 4579:2.6636124 4618:6.2931104 4641:3.3214624 4675:22.017284 5066:0.87466908 5095:1.2207799 5331:5.4627252 5394:4.9618449 5459:2.0794415 5508:2.3330443 5746:29.625292 5761:10.231992 5880:3.4420195 6111:17.855577 6134:0.32711613 6259:62.044197 6295:0.38272563 6722:0.83240926 6906:66.34346 6910:18.648508 7073:11.210254 7149:0.78020072 7278:5.521461 7333:2.2827826 7390:2.8302178 7461:18.643824 7481:1.3466891 7654:3.8935254 7925:4.0198312 8206:3.1941831 8328:4.4886322 8751:0.92130327 8957:3.1235657 9258:3.6154728 9636:9.0478048 9637:11.870379 9748:0.86512244 9887:12.796463 10028:7.4308152 10464:2.9759297 10484:7.377759 10564:2.7646205 10724:6.643301 11198:6.2146082 11236:0.62175721 11285:7.7264657 11468:7.3725715 11673:1.0817552 12045:13.372104 12482:11.042922 12605:2.7488723 13153:3.0929263 13237:1.130103 13281:0.731888 13291:4.074542 13574:4.0651159 13681:0.87227386 13820:7.3496523 14158:0.98349947 14265:0.50087529 14484:0.36650291 14810:10.231992 14927:3.7297015 15010:4.3573027 15063:1.3388613 15580:7.8518877 15813:2.1715569 16081:31.07304 16154:8.013607 16167:14.015549 16538:2.2633643 16708:0.97551012 # Primal Scream
2.0006791503086926561818387204639e-05 102:1.4229584 144:2.4191189 442:2.5510464 692:1.0498221 950:2.0479429 1302:0.80296206 1365:0.99967235 1484:0.89894211 1660:0.51583815 1690:1.0356375 1875:2.6310892 2076:1.7203695 2222:6.2146082 2261:5.1159959 2419:1.9805017 2440:3.0365543 2874:1.0216513 2894:1.8515095 3148:0.449417 3226:6.9718771 4300:0.80743635 4457:14.647603 4569:2.3751557 4579:2.6636124 4592:2.5770218 4675:14.324498 4873:1.2173958 5066:2.6240072 5095:1.2207799 5216:4.1997051 5331:1.213939 5746:1.1394343 5759:6.2146082 5880:3.4420195 6111:2.9759297 6134:0.32711613 6278:3.473768 6295:0.76545125 6597:1.2658482 6722:0.83240926 6906:1.2517635 7073:0.80073237 7114:4.7105308 7149:0.78020072 7475:4.9618449 7481:0.67334455 7637:7.9266324 7654:49.058418 7748:4.6051702 7831:1.7429693 7907:4.50986 7925:4.0198312 8672:5.4977446 8717:22.085844 8751:0.92130327 8839:0.84164721 9154:4.2686977 9498:29.045715 9637:7.597043 9659:233.31624 9709:11.316783 9718:4.074542 9738:2.7181005 9748:0.86512244 9820:2.5383074 9825:4.1351666 9887:6.0814872 9948:1.7778566 10724:0.73814452 11052:3.6888795 11065:1.7880802 11152:1.5100452 11236:0.62175721 11408:3.7546346 11468:1.4563104 11722:5.8091431 12045:1.9103005 12397:3.1941831 12513:6.2146082 12776:4.7105308 13018:3.0365543 13105:5.1159959 13261:1.4439235 13509:4.1351666 13524:5.2983174 13681:0.87227386 13820:2.3385258 13857:0.99967235 14265:0.50087529 14381:1.7259717 14449:1.3704211 14484:1.8325145 14709:3.8632329 15063:0.66943067 15276:5.521461 15404:3.4974 15712:5.521461 16167:1.1679623 16706:2.1037343 16885:2.6036901 # Phoenix
2.0006791503086926561818387204639e-05 444:5.8091431 692:2.0996442 950:2.0479429 1390:4.074542 2076:1.7203695 2268:2.1202636 2440:6.0731087 2449:2.3330443 2512:6.2146082 2643:24.858433 2801:5.521461 2851:5.1159959 2894:1.8515095 2939:5.1159959 3076:1.9449106 3128:4.9618449 3160:5.1159959 3394:12.429216 3542:3.5404594 3728:5.8091431 3832:5.521461 4104:5.2983174 4300:0.80743635 4457:2.1753867 4564:5.2983174 4579:7.9908371 4675:26.792116 4871:5.8091431 4873:1.2173958 5161:3.8167129 5331:22.45787 5384:4.0173836 5686:9.0197201 5880:3.4420195 6060:5.521461 6092:4.9618449 6111:5.9518595 6295:2.2963538 6642:2.3227878 6806:0.52593929 6873:14.879648 6958:5.8091431 7073:0.80073237 7106:6.2146082 7149:0.52013379 7654:8.5657558 7738:6.2146082 7925:10.049578 8373:5.8091431 8464:3.6119184 8531:6.2146082 8579:1.6873995 8598:2.6310892 8600:4.7105308 8689:6.2146082 8751:0.92130327 8958:2.1455812 9341:5.1159959 9401:16.906973 9637:1.4244455 9738:5.4362011 9821:5.521461 9887:0.25339532 9948:1.7778566 10729:5.8091431 10741:5.8091431 11236:0.62175721 11332:10.231992 11338:3.2441936 11408:24.405127 11446:3.5404594 11468:0.6371358 11488:2.9759297 11577:4.2686977 11613:6.2146082 11697:3.8167129 12000:3.9633162 12045:3.820601 12057:4.3428059 12259:6.2146082 12340:1.2073117 13166:6.2146082 13176:5.2983174 13292:6.2146082 13595:4.7105308 13936:5.2983174 14022:99.785149 14335:4.7105308 14476:4.3428059 14484:5.2532082 15042:1.7778566 15063:1.3388613 15122:6.2146082 15404:124.1577 15817:5.521461 16039:1.2694006 16362:2.8824036 16706:4.2074685 16715:4.6051702 16885:111.95868 # Miike Snow
2.0006791503086926561818387204639e-05 143:7.377759 334:39.631016 393:8.6856117 440:5.8091431 692:3.1494663 1173:16.564383 1586:4.7105308 1965:2.0174062 1971:0.6311118 2076:92.899948 2152:7.2238369 2382:5.4362011 2440:6.0731087 3042:6.2146082 3076:3.8898213 3254:11.042922 3448:4.6252708 3480:12.429216 3614:11.042922 3642:11.042922 3934:12.429216 4041:11.618286 4209:5.1159959 4457:9.4266748 4579:62.594891 4641:3.3214624 4675:26.792116 4826:6.1152153 4873:4.8695831 5112:1.5417793 5331:11.53242 5508:4.6660886 5746:15.95208 6088:7.6334257 6330:13.268546 6373:4.0804415 6763:11.618286 6780:8.490653 6908:1.9241487 7073:10.409521 7149:1.0402676 7305:7.9777803 7331:4.6051702 7333:9.1311302 7456:12.429216 7654:1.5574101 7823:5.6268215 7925:12.059493 8207:6.0522184 8454:3.6496587 8751:2.7639098 9080:5.8375425 9637:0.94963038 9718:4.074542 9735:6.8840389 9841:5.2983174 9887:0.12669766 9948:3.5557132 10952:14.885535 11118:6.2146082 11203:3.7809508 11338:6.4883871 11408:5.6319523 11468:0.1820388 11477:17.691395 11531:5.8091431 11614:4.6051702 11632:5.1805344 11952:4.9618449 12045:21.013306 12331:6.2146082 12373:5.8091431 12711:6.2146082 12916:6.2146082 13018:6.0731087 13024:4.2911625 13616:4.1997051 13887:8.0347672 13895:18.643824 14128:6.2146082 14484:0.48867053 14572:31.789904 14605:17.427429 14645:6.2146082 14669:6.2146082 15010:2.9048684 15063:1.3388613 15206:6.2021856 15404:3.4974 15453:7.5445223 15580:5.2345915 16039:2.5388012 16154:5.3424048 16167:4.6718493 16201:5.3472977 16349:7.377759 16623:6.2146082 16637:13.086479 16708:0.97551012 16732:6.2146082 # Totally Enormous Extinct Dinosaurs
-2.0006791503086926561818387204639e-05 911:11.042922 1971:29.662254 2076:3.4407389 2851:25.579979 3308:12.429216 3495:12.429216 4300:0.80743635 4457:0.5801031 4508:11.042922 4579:82.571983 4675:26.792116 5110:16.564383 5256:12.429216 5331:21.243933 5508:4.6660886 5664:9.0197201 6027:11.618286 6873:8.9277887 7331:9.2103405 7654:2.3361151 8525:13.268546 8598:5.2621784 8751:1.8426065 9106:6.3883662 9401:10.144184 11406:68.90184 11408:140.7988 11446:10.621378 11650:11.618286 12045:4.4573679 13018:9.109663 14022:289.69882 14038:7.9266324 14088:10.596635 14481:10.596635 14484:7.3300581 14709:7.7264657 14759:11.042922 14898:7.2238369 14899:8.0347672 15161:10.231992 15173:125.00127 15375:3.6903205 15404:148.6395 15783:11.618286 16201:5.3472977 16637:7.8518877 # Icona Pop
-5.3216589538638591332119810728418e-06 334:7.4308152 687:12.429216 692:1.0498221 1773:6.2146082 1822:22.623823 2076:98.061058 2126:6.2146082 2136:12.429216 2974:5.8091431 2988:5.521461 3029:16.069534 3076:40.843124 3089:18.643824 3177:6.2146082 3403:6.2146082 3542:3.5404594 3567:8.0347672 4300:0.80743635 4457:0.29005155 4579:3.9954185 4641:61.447056 4675:24.139431 5161:3.8167129 5273:3.9633162 5331:1.8209084 5408:6.2146082 5569:6.5946751 5709:4.50986 5786:6.2146082 6182:6.2146082 6295:0.76545125 6362:4.9618449 6373:2.0402207 6550:10.469183 6557:10.233743 6597:2.5316963 6806:2.1037571 6828:18.643824 6930:3.3813949 7020:6.2146082 7073:13.612451 7149:0.2600669 7305:268.58527 7333:27.393389 7400:5.521461 7727:39.085255 7925:2.0099156 7968:5.521461 8060:57.939766 8212:5.2983174 8301:4.4228487 8579:6.749598 8751:1.8426065 8866:6.2146082 9411:6.2146082 9524:11.618286 10422:11.450138 10515:6.2146082 10606:6.2146082 10707:5.8091431 10728:5.521461 11074:4.4228487 11203:1.8904754 11230:5.521461 11237:8.5373955 11338:3.2441936 11468:0.1820388 11746:5.521461 12045:5.0941348 12135:4.9618449 12228:14.161838 12237:4.1997051 12238:6.2146082 12409:12.405499 12840:6.2146082 12917:6.2146082 13108:15.894952 13305:6.2146082 13568:12.429216 13887:4.0173836 13950:6.2146082 14026:4.1351666 14245:6.2146082 14712:3.3242364 14810:30.695974 15006:6.2146082 15010:5.8097367 15063:1.3388613 15208:5.521461 15250:8.6856117 15259:5.8091431 15453:264.05829 15688:5.521461 15751:6.2146082 15957:6.2146082 16349:3.6888795 16357:9.9727087 16476:2.095571 16547:3.6157777 16637:2.6172957 # Nicolas Jaar
-2.0006791503086926561818387204639e-05 31:6.2146082 334:250.17079 692:1.0498221 1173:5.521461 1284:6.2146082 1302:1.6059241 1365:0.99967235 1619:5.8091431 1660:1.5475144 1822:5.9536381 1987:4.50986 2091:6.2146082 2255:4.1997051 2356:1.0328245 2608:2.1715569 2760:2.8473122 2894:1.8515095 2945:4.6051702 3016:4.7105308 3076:105.02518 3448:2.3126354 3451:75.188423 3558:3.9633162 3567:4.0173836 3704:4.50986 3753:6.2146082 3949:1.1363142 4077:5.3764954 4215:5.521461 4300:0.80743635 4363:5.521461 4457:0.43507731 4579:1.3318062 4585:6.2146082 4675:23.078358 4873:2.4347916 4901:6.2146082 5112:1.5417793 5226:6.2146082 5289:6.2146082 5331:0.60696948 5746:18.230949 6295:1.1481769 6557:6.8224955 6780:5.6604357 7073:53.649071 7239:6.2146082 7305:13.2963 7333:6.8483472 7342:6.2146082 7378:5.8091431 7655:5.2983174 7941:4.6051702 8579:3.374799 8672:2.7488723 9365:6.2146082 9410:23.236572 9668:3.2968373 9748:43.256123 9840:5.521461 9868:3.3524072 10684:8.1490841 10798:4.1351666 11052:3.6888795 11203:1.8904754 11236:0.62175721 11237:8.5373955 11468:0.091019399 11477:35.38279 11485:4.9618449 11737:5.521461 11761:4.7105308 11762:4.6051702 11801:4.4228487 12045:3.820601 12340:1.2073117 12614:3.0365543 13007:3.5755508 13024:4.2911625 13333:6.2146082 13509:4.1351666 13642:4.3428059 13857:0.99967235 14265:0.50087529 14484:0.12216763 14589:5.521461 15010:1.4524342 15063:1.3388613 15278:2.7181005 15524:5.8091431 15580:7.8518877 15688:5.521461 16154:2.6712024 16167:1.1679623 16210:2.8302178 16221:9.6566277 16476:2.095571 16580:6.2146082 16637:2.6172957 16708:1.9510202 # James Blake
-1.2026626257904588870894548036095e-05 97:5.8091431 465:1.4271164 551:4.9618449 598:2.453408 678:5.8091431 735:5.8091431 767:5.8091431 910:11.618286 1302:0.80296206 1534:5.1159959 1690:4.14255 1822:3.5721827 2111:3.5404594 2193:6.2146082 2910:5.8091431 3006:3.6496587 3020:12.429216 3065:3.3813949 3203:5.8091431 3448:6.9379063 3502:5.8091431 3551:6.2146082 3567:4.0173836 3688:6.2146082 4329:11.889949 4457:0.14502577 4579:37.290573 4641:19.928774 4675:26.792116 4766:15.648092 5066:1.7493382 5299:5.8091431 5331:1.8209084 5477:11.618286 5709:9.0197201 5900:135.17033 5930:6.2146082 6597:1.2658482 6657:6.2146082 6722:0.83240926 6761:5.8091431 6908:1.9241487 7073:11.210254 7149:0.2600669 7196:5.8091431 7274:5.8091431 7305:5.3185201 7333:2.2827826 7360:6.2146082 7481:0.67334455 7617:31.07304 7765:12.429216 7831:10.457816 7968:5.521461 8065:6.2146082 8598:2.6310892 8641:6.2146082 8990:6.2146082 9258:6.3270774 9409:4.9618449 9497:1.5095925 9588:5.8091431 9637:0.47481519 9738:2.7181005 9886:5.8091431 9887:0.25339532 10028:2.4769385 10253:5.8091431 10724:1.476289 11319:4.8283138 11338:3.2441936 11408:84.479279 11468:0.1820388 11559:95.108833 11566:2.1892564 12045:21.650072 12652:2.7181005 13153:7.7323155 13678:7.0131159 13705:11.618286 14381:1.7259717 14391:5.8091431 14484:0.36650291 14525:6.2146082 14815:5.8091431 14880:6.2146082 15063:0.66943067 15404:5.2460999 15415:6.2146082 15490:6.2146082 15553:5.8091431 16127:5.521461 16167:2.3359246 16237:6.2146082 16332:11.042922 16362:2.8824036 16518:4.1997051 16638:3.6496587 16706:10.518671 16885:10.414761 # Kraftwerk
2.0006791503086926561818387204639e-05 161:2.0557251 465:1.4271164 486:0.81871039 528:2.5133061 602:2.0174062 613:4.1351666 657:1.9310216 692:1.0498221 1302:0.80296206 1365:0.99967235 1439:5.521461 1462:0.60330647 1484:0.89894211 1546:2.3330443 1608:2.3968959 1660:0.51583815 1690:1.0356375 1971:0.6311118 2353:1.7203695 2356:1.0328245 2510:2.9759297 2874:1.0216513 3148:0.449417 3532:3.8632329 3949:1.1363142 4199:18.861305 4300:0.80743635 4457:14.647603 4569:2.3751557 4675:0.26526847 4846:3.1762924 4873:1.2173958 4969:2.1715569 5066:0.87466908 5095:1.2207799 5262:2.4651041 5331:0.60696948 5481:2.7488723 5492:1.8451602 5746:28.485857 6134:0.9813484 6259:21.897953 6295:1.1481769 6634:3.6119184 6722:0.83240926 6906:71.350517 6910:7.459403 7030:1.2207799 7149:0.78020072 7390:2.8302178 7454:1.9805017 7481:0.67334455 7559:58.091431 7570:1.7259717 7654:2.3361151 7823:2.8134108 7984:1.5847453 8080:6.2146082 8508:1.5702173 8751:0.92130327 8839:1.6832944 8885:6.2146082 9097:2.198225 9139:4.2686977 9328:1.4961092 9637:32.287434 9887:8.995533 10000:4.4228487 10288:1.2517635 10564:5.5292411 10724:0.73814452 10732:2.5770218 11065:2.6821203 11152:0.75502259 11236:0.62175721 11346:4.1997051 11468:7.736649 11673:1.0817552 12045:0.63676685 12340:2.4146235 12560:2.3434072 12610:2.8647039 12760:4.50986 13249:5.8091431 13261:1.4439235 13281:0.731888 13452:3.1117942 13681:0.87227386 13820:11.024479 14158:0.98349947 14265:1.0017506 14484:0.73300582 14789:2.7646205 14898:3.6119184 15063:1.3388613 15837:2.5257287 16154:4.0068035 16210:2.8302178 16231:5.521461 16722:2.2537949 # Snow Patrol
2.0006791503086926561818387204639e-05 102:1.4229584 144:2.4191189 442:2.5510464 465:4.2813492 486:0.81871039 495:2.4889147 657:1.9310216 950:2.0479429 1462:1.8099195 1484:0.89894211 1660:0.51583815 1690:3.1069124 1748:2.2633643 1971:0.6311118 1982:6.2146082 2356:1.0328245 2377:37.287647 2449:2.3330443 2492:3.2188759 2510:5.9518595 2702:3.473768 2813:4.8283138 2874:1.0216513 3029:4.0173836 3148:0.449417 3205:6.2146082 3724:2.1370707 4298:4.1997051 4300:0.80743635 4457:14.647603 4569:2.3751557 4675:0.53053695 4846:0.7940731 4873:1.2173958 5066:0.87466908 5331:0.60696948 5397:4.6051702 5481:2.7488723 5492:1.8451602 5746:45.57737 5998:9.9236898 6134:0.32711613 6147:2.6882477 6295:0.76545125 6622:4.7105308 6634:3.6119184 6722:0.83240926 6906:86.371681 7030:1.2207799 7149:1.0402676 7390:2.8302178 7454:1.9805017 7481:0.67334455 7654:3.1148202 7984:1.5847453 8207:2.0174062 8228:5.913023 8464:3.6119184 8839:0.84164721 9097:2.198225 9258:0.9038682 9637:42.258553 9836:3.1010928 9887:8.3620453 10288:1.2517635 10360:4.2686977 10428:4.2686977 10564:5.5292411 10620:5.521461 10732:2.5770218 11065:0.89404011 11109:3.8167129 11152:0.75502259 11236:0.62175721 11468:4.9150476 11673:1.0817552 11783:2.8647039 12045:0.63676685 12397:3.1941831 12759:3.6496587 13261:1.4439235 13281:0.731888 13606:6.2146082 13820:7.3496523 14158:0.98349947 14265:0.50087529 14352:4.4228487 14484:0.48867053 14539:4.1997051 14789:2.7646205 15010:1.4524342 15042:1.7778566 15142:4.3428059 16154:6.6780062 16167:1.1679623 16538:2.2633643 16708:1.9510202 16718:5.2983174 16722:2.2537949 16740:2.095571 # Kaiser Chiefs
2.0006791503086926561818387204639e-05 53:3.0365543 301:9.4210615 315:4.2686977 334:2.4769385 446:2.0402207 486:82.689751 692:3.1494663 744:2.4304185 936:5.8091431 1365:0.99967235 1534:5.1159959 2076:46.449974 2259:6.2146082 2289:3.3813949 2535:1.7092582 2598:42.386539 2648:4.7105308 2657:2.0794415 2894:1.8515095 3148:0.449417 3446:5.8091431 3473:4.9618449 3973:5.8091431 4077:2.6882477 4457:0.29005155 4572:4.8283138 4579:5.3272247 4675:2.9179533 4873:1.2173958 4986:9.9727087 5112:3.0835586 5179:4.3428059 5331:3.0348475 5508:2.3330443 5591:5.3764954 6134:0.32711613 6248:9.6566277 6295:1.1481769 6393:5.2983174 6550:2.6172957 6806:3.1556356 6877:3.7722611 7073:1.6014647 7149:0.52013379 7646:7.503108 7751:4.9618449 8400:5.2983174 8613:8.6856117 8616:5.521461 9054:6.2146082 9158:2.3227878 9280:6.2146082 9303:4.9618449 9637:0.47481519 9656:6.2146082 9748:0.86512244 9941:4.2686977 10135:2.9565115 10379:5.2983174 10579:1.3040105 10684:4.074542 10938:2.0479429 11072:6.2146082 11117:5.2983174 11236:0.62175721 11406:2.9957323 11468:0.45509699 11697:3.8167129 11871:6.2146082 12045:1.9103005 12237:8.3994102 12291:6.2146082 12340:1.2073117 12358:4.50986 12462:3.473768 12608:6.2146082 13188:6.4367442 13237:72.326591 13277:3.2968373 13337:5.0020719 13350:48.949635 13670:4.4328146 13820:0.33407512 13995:2.1370707 14265:0.50087529 14402:138.68068 14484:0.24433526 14584:4.1997051 14689:17.691395 14712:3.3242364 14786:6.2146082 15010:2.9048684 15063:1.3388613 15206:3.1010928 15359:4.1997051 15428:7.459403 15507:18.921438 16167:1.1679623 16363:4.2686977 16547:1.8078889 # Kid Cudi
2.0006791503086926561818387204639e-05 102:1.4229584 113:2.2827826 150:2.0099156 161:2.0557251 222:2.7030628 300:2.4418471 486:0.81871039 488:3.0159349 528:123.152 602:2.0174062 637:1.9449106 644:2.7968814 692:9.4483995 811:3.8632329 1302:2.4088862 1365:1.9993447 1462:0.60330647 1608:2.3968959 1633:3.5065579 1660:52.099655 1783:5.521461 1971:0.6311118 2353:3.4407389 2356:1.0328245 2507:31.782215 2894:1.8515095 3148:0.449417 3180:4.50986 3226:1.7429693 3949:2.2726283 4189:2.1628232 4457:0.87015462 4692:5.521461 4846:1.5881462 4873:1.2173958 4969:2.1715569 5095:1.2207799 5492:1.8451602 5621:3.2441936 6134:0.9813484 6295:4.2099819 6722:0.83240926 6746:4.9618449 6806:3.1556356 6906:1.2517635 7149:0.52013379 7421:15.514852 7471:4.6051702 7481:0.67334455 7804:3.5404594 7984:1.5847453 8469:2.8134108 8668:2.7333679 8839:73.223305 9040:3.6888795 9258:0.9038682 9328:4.4883275 9509:6.2146082 9540:6.2146082 9637:0.47481519 9748:2.5953674 9833:2.65926 9887:8.995533 10563:2.1628232 10579:0.65200526 10640:84.773079 10724:0.73814452 10938:2.0479429 11052:3.6888795 11065:6.2582808 11152:2.2650678 11236:1.8652716 11417:3.270169 11468:1.820388 11673:1.0817552 12072:3.4112477 12340:7.2438703 12560:4.6868143 12610:2.8647039 13261:2.8878469 13452:7.7794857 13610:2.3330443 13681:0.87227386 13820:1.3363005 13857:0.99967235 14265:1.5026258 14449:12.333789 14484:6.9635553 14690:3.1010928 15063:2.008292 15114:2.6310892 15147:3.6496587 15171:4.7105308 15564:2.3126354 15824:2.7806208 15904:3.2188759 16039:1.2694006 16210:2.8302178 16476:2.095571 16927:4.50986 # John Mayer
-2.0006791503086926561818387204639e-05 144:2.4191189 299:4.0173836 465:1.4271164 466:215.84413 486:0.81871039 520:2.7968814 637:13.614374 692:2.0996442 847:5.2983174 1125:5.521461 1142:4.1997051 1302:0.80296206 1462:0.60330647 1538:3.9120231 1660:3.6108673 1668:5.8091431 1792:49.716866 1822:1.1907276 2246:3.4745426 2356:1.0328245 2507:1.3242589 2535:1.7092582 2592:18.248293 3148:0.449417 3151:2.1037343 3226:12.200785 3585:23.179398 4164:3.9120231 4300:0.80743635 4457:13.777449 4569:2.3751557 4675:0.53053695 4846:1.5881462 4873:1.2173958 5066:0.87466908 5095:1.2207799 5196:3.1235657 5492:1.8451602 6134:1.3084645 6295:0.76545125 6597:1.2658482 6685:7.2993174 6722:0.83240926 6806:4.7334533 6854:3.6496587 6906:1.2517635 7073:4.8043942 7142:4.9618449 7149:0.78020072 7325:6.2146082 7454:1.9805017 7481:1.3466891 7570:1.7259717 7654:5.4509354 7879:3.9633162 8033:4.3428059 8131:6.2146082 8299:5.8091431 8617:4.074542 8751:0.92130327 8839:1.6832944 8988:2.8647039 9446:3.1700857 9637:30.388172 9820:2.5383074 9887:6.2081852 9958:48.382378 10028:7.4308152 10579:1.3040105 10724:2.2144337 10938:2.0479429 11065:0.89404011 11152:21.140633 11185:6.2146082 11203:3.7809508 11236:1.2435144 11468:4.3689313 11484:5.521461 11678:6.2146082 11784:22.900276 12045:0.63676685 12188:3.3813949 12340:2.4146235 12547:6.0318699 12610:2.8647039 13106:4.7105308 13607:3.5065579 13681:1.7445477 13820:3.6748261 14120:6.7329488 14265:0.50087529 14381:1.7259717 14469:1.7778566 14484:0.48867053 14617:6.2146082 15042:1.7778566 15063:0.66943067 16167:1.1679623 16269:9.9236898 16722:2.2537949 # Wilco
-2.6894678705653880970802716704471e-06 102:1.4229584 422:5.8091431 465:2.8542328 466:2.1370707 1170:11.042922 1462:39.818226 1486:103.72678 1609:6.2146082 1660:1.0316763 1690:1.0356375 1923:2.9565115 2069:12.429216 2492:1.6094379 2507:1.3242589 2646:6.2146082 2834:4.9618449 2934:6.2146082 2938:14.885535 3082:4.50986 3148:0.449417 3226:90.634407 4013:6.7627897 4199:380.99838 4300:0.80743635 4457:0.43507731 4592:2.5770218 4873:1.2173958 5552:2.9759297 5746:3.4183028 5995:9.6566277 6134:0.65423226 6295:0.76545125 6306:5.521461 6389:5.521461 6392:5.521461 6526:6.2146082 6722:0.83240926 6821:6.2146082 6985:5.521461 7030:1.2207799 7073:0.80073237 7434:6.2146082 7481:1.3466891 7552:11.042922 7568:90.071396 7984:1.5847453 8798:10.231992 8839:0.84164721 8988:2.8647039 9258:5.4232092 9446:3.1700857 9541:5.1159959 9637:0.47481519 9806:18.643824 9820:7.614922 9887:2.1538601 10724:1.476289 11065:0.89404011 11120:44.171688 11152:67.197006 11236:0.62175721 11346:20.998526 11468:0.91019398 11566:2.1892564 11635:68.878128 11674:37.684246 11699:6.2146082 12221:6.2146082 12272:5.8091431 12498:5.1159959 12677:5.8091431 13024:2.1455812 13225:5.521461 13281:0.731888 13436:5.8091431 13647:3.9120231 13727:5.521461 13820:0.66815025 14045:6.2146082 14144:3.4420195 14158:8.8514957 14265:0.50087529 14367:5.2983174 14484:0.12216763 15042:1.7778566 15253:5.1159959 15392:4.7105308 15581:2.5770218 15604:6.2146082 15973:5.1159959 16154:2.6712024 16230:5.8091431 16486:5.8091431 16501:6.2146082 16547:1.8078889 16696:171.75208 16708:0.97551012 16740:2.095571 16874:5.8091431 16904:5.521461 # The Pogues
-2.0006791503086926561818387204639e-05 159:11.042922 277:3.8167129 402:25.579979 466:2.1370707 594:3.8632329 637:5.8347321 692:2.0996442 807:8.5373955 1019:1.9951004 1168:1.5417793 1302:2.4088862 1345:102.21386 1484:1.7978842 1660:1.0316763 1875:2.6310892 2382:2.7181005 2419:154.47913 2442:4.0173836 2507:13.24259 2686:94.707062 2874:1.0216513 3148:0.449417 3226:22.658602 4254:12.429216 4315:3.3242364 4340:5.521461 4457:0.14502577 4811:5.9518595 5066:3.4986763 5270:5.8091431 5456:7.1511016 5459:2.0794415 5570:2.0714734 5621:123.27936 6047:11.042922 6134:0.32711613 6295:0.76545125 6391:40.929138 6780:2.8302178 6806:3.6815748 7073:1.6014647 7100:5.8557849 7144:22.114243 7421:15.514852 7481:68.007797 7614:15.853265 7646:2.5010359 7831:15.686724 7879:3.9633162 8329:107.27703 8725:6.2146082 8751:0.92130327 8839:0.84164721 8926:62.14608 8957:3.1235657 9258:1.8077364 9304:3.7297015 9497:4.5287776 9784:6.2146082 9820:7.614922 9887:7.0950685 9958:9.6764755 10028:2.4769385 10151:5.521461 10579:1.3040105 10724:0.73814452 11152:42.281265 11236:0.62175721 11246:5.1159959 11259:3.1700857 11285:3.8632329 11468:0.1820388 11614:2.3025851 11932:5.2983174 12240:6.2146082 12298:6.2146082 12340:1.2073117 12472:2.4889147 12547:15.079675 13291:4.074542 13447:3.8167129 13452:1.5558971 13574:2.032558 13681:0.87227386 13820:0.33407512 14183:6.2146082 14403:6.2146082 14449:2.7408421 14469:1.7778566 14478:6.2146082 14484:0.12216763 14584:4.1997051 14655:8.8456974 14690:3.1010928 15063:0.66943067 15623:16.540667 16014:4.0173836 16076:17.368841 16093:5.8091431 16167:74.749588 # Grateful Dead
-1.1951754697697059999562962419317e-07 91:12.429216 113:4.5655651 144:4.8382378 222:2.7030628 396:18.643824 399:12.429216 447:9.4210615 569:6.2146082 929:357.25284 1376:6.2146082 1825:32.236191 1971:15.777795 2082:5.8091431 2119:27.607306 2342:18.643824 2356:2.065649 2501:6.2146082 2575:6.2146082 2608:2.1715569 2725:17.427429 2894:3.7030189 3314:18.643824 3682:2.5770218 4151:5.8091431 4262:18.643824 4310:31.07304 4388:24.858433 4434:153.6512 4569:2.3751557 4654:5.521461 4675:0.53053695 4881:55.931473 4921:18.643824 5112:3.0835586 5231:11.618286 5331:7.2836337 5499:5.8091431 5587:2.6310892 5822:6.2146082 6068:6.2146082 6286:5.2983174 6502:24.858433 6512:5.2983174 6874:6.2146082 6933:6.2146082 7149:0.52013379 7277:4.6393895 7309:5.2983174 7351:3.1235657 7807:12.429216 7962:19.313255 8051:6.2146082 8573:2.9565115 8579:1.6873995 8751:0.92130327 8823:12.429216 8939:3.0576077 9148:12.429216 9361:18.643824 9497:1.5095925 9601:190.73943 9708:5.2983174 9833:10.63704 9855:3.5065579 9879:3.270169 9887:0.12669766 10150:6.2146082 10221:11.618286 11796:5.8091431 12168:6.2146082 12376:5.2983174 12644:4.7984629 12947:4.50986 13003:19.84738 13314:5.2983174 13679:12.429216 14166:136.72137 14172:4.8283138 14247:6.2146082 14265:1.0017506 14484:4.7645378 14684:12.429216 15042:1.7778566 15147:3.6496587 15173:5.1020927 15329:516.71558 15375:3.6903205 15404:5.2460999 15561:24.858433 15598:12.429216 15626:5.8091431 15646:6.2146082 16039:5.0776024 16467:6.2146082 16535:5.1020927 16568:6.2146082 16574:6.2146082 16650:6.2146082 16933:5.521461 16955:6.2146082 # 
2.0006791503086926561818387204639e-05 273:6.2146082 334:250.17079 519:2.5902672 595:5.2983174 692:1.0498221 740:6.2146082 970:5.521461 997:5.8091431 1299:6.2146082 1343:3.5065579 1462:0.60330647 1546:2.3330443 1822:63.108562 1916:6.9379063 1990:6.2146082 2023:12.429216 2160:6.2146082 2268:2.1202636 2356:1.0328245 2492:1.6094379 2627:5.2983174 3076:5.8347321 3148:0.449417 3451:4.4228487 3651:4.1997051 4077:5.3764954 4457:0.14502577 4554:6.2146082 4579:1.3318062 4675:15.120303 4683:10.596635 4728:6.2146082 4969:2.1715569 5040:6.2146082 5135:5.1159959 5219:11.042922 5262:2.4651041 5273:3.9633162 5746:7.9760399 5925:6.2146082 5928:6.2146082 6550:2.6172957 6557:3.4112477 6597:1.2658482 6722:0.83240926 6780:2.8302178 7055:6.2146082 7073:29.627098 7149:0.2600669 7190:4.1351666 7305:10.63704 7333:18.26226 7351:6.2471313 7570:1.7259717 7909:7.6692905 8450:6.2146082 8751:0.92130327 8795:6.2146082 9028:6.2146082 9080:2.9187713 9506:6.2146082 9917:4.4228487 10189:12.429216 10288:2.5035269 10504:2.3751557 10684:20.372709 10789:3.5755508 11338:3.2441936 11468:0.091019399 11477:17.691395 11637:6.2146082 11673:1.0817552 12045:10.825036 12217:6.2146082 12228:3.5404594 12409:4.1351666 12419:10.857784 12629:3.2968373 12716:6.2146082 13007:3.5755508 13024:4.2911625 13188:4.2911625 13194:6.2146082 13281:0.731888 13588:3.8167129 14000:37.287647 14081:6.2146082 14306:6.2146082 14810:5.1159959 14817:4.3428059 15010:4.3573027 15063:2.008292 15580:18.321072 16084:18.420681 16118:7.9266324 16154:4.0068035 16167:1.1679623 16547:1.8078889 16638:3.6496587 16708:0.97551012 # Burial
2.0006791503086926561818387204639e-05 53:3.0365543 150:2.0099156 161:2.0557251 405:3.8167129 515:3.2968373 602:2.0174062 692:1.0498221 846:3.0365543 1005:5.2983174 1365:0.99967235 1546:2.3330443 1660:2.5791907 1822:2.3814552 1971:63.74229 2356:1.0328245 2608:2.1715569 2894:1.8515095 3076:5.8347321 3148:0.449417 3567:4.0173836 4300:0.80743635 4457:4.6408248 4579:2.6636124 4675:22.017284 4873:1.2173958 5095:1.2207799 5331:1.213939 5384:4.0173836 5569:2.198225 5686:4.50986 5885:6.2146082 6364:4.1351666 6373:12.241325 6597:1.2658482 6873:17.855577 7073:1.6014647 7149:0.52013379 7277:6.1858525 7570:1.7259717 7654:76.313095 7925:2.0099156 7953:3.2968373 8003:18.643824 8579:1.6873995 8598:2.6310892 8670:5.521461 8672:2.7488723 8839:0.84164721 8939:3.0576077 9157:3.3813949 9192:2.5770218 9328:1.4961092 9401:13.525579 9637:1.4244455 9718:4.074542 9735:3.4420195 9748:0.86512244 9833:2.65926 9887:0.25339532 10361:4.50986 10504:2.3751557 10563:2.1628232 11152:2.2650678 11408:1.8773173 11446:3.5404594 11468:1.1832522 11696:3.9633162 12045:5.0941348 12340:2.4146235 12497:4.074542 12560:2.3434072 12600:5.8091431 12644:4.7984629 13559:2.2164073 13595:18.842123 13820:0.33407512 13836:6.2146082 14022:318.6687 14038:3.9633162 14110:4.6051702 14120:4.4886322 14265:0.50087529 14484:6.4748845 14536:3.8167129 14850:2.0479429 15010:2.9048684 15063:3.3471532 15375:1.8451602 15404:8.7434998 15564:2.3126354 15613:5.2983174 15624:4.7289209 16017:6.2146082 16039:1.2694006 16221:3.2188759 16316:6.2146082 16645:4.4228487 16708:0.97551012 16767:6.2146082 16823:6.2146082 # Lykke Li
1.6612309528441834415458250306941e-05 81:3.079114 102:1.4229584 139:6.2146082 156:5.521461 442:2.5510464 515:6.5936747 602:2.0174062 950:4.0958858 1046:6.2146082 1336:6.2146082 1462:0.60330647 1660:1.0316763 1690:1.0356375 2178:4.6051702 3541:2.9004221 3542:3.5404594 4300:1.6148727 4457:14.647603 4634:3.473768 4667:4.50986 4675:0.26526847 4846:1.5881462 4873:1.2173958 5032:4.3428059 5216:4.1997051 5262:2.4651041 5384:4.0173836 5492:1.8451602 5686:13.52958 6134:0.65423226 6142:3.8167129 6295:0.76545125 6363:3.9633162 6722:0.83240926 6873:17.855577 6901:6.2146082 6906:1.2517635 6992:4.7105308 7149:1.0402676 7387:4.7105308 7466:3.7297015 7637:3.9633162 7654:34.263023 8291:5.8091431 8373:5.8091431 8463:5.8091431 8464:3.6119184 8607:5.8091431 8670:5.521461 8751:0.92130327 8839:0.84164721 8988:2.8647039 9192:2.5770218 9328:1.4961092 9401:27.051159 9538:6.2146082 9637:29.913357 9648:5.1159959 9833:2.65926 9836:3.1010928 9858:4.074542 9887:3.5475342 10504:2.3751557 10789:3.5755508 10794:5.521461 11062:5.8091431 11065:1.7880802 11083:4.1351666 11152:0.75502259 11203:1.8904754 11384:3.6119184 11446:3.5404594 11468:1.7293686 11614:2.3025851 11665:5.2983174 12182:4.1351666 12305:5.1159959 12494:4.4228487 12896:4.9618449 13261:1.4439235 13595:4.7105308 13681:0.87227386 13820:1.6703756 14022:267.16669 14110:4.6051702 14120:2.2443161 14121:5.8091431 14158:0.98349947 14265:0.50087529 14389:5.1159959 14484:1.3438439 14539:4.1997051 14738:4.2686977 14789:2.7646205 15042:1.7778566 15270:18.643824 16168:6.2146082 16191:5.521461 16346:6.2146082 16352:4.6051702 # Shout Out Louds
2.0006791503086926561818387204639e-05 53:3.0365543 161:2.0557251 405:3.8167129 433:4.8283138 486:1.6374208 692:4.1992884 950:2.0479429 1151:4.1351666 1202:5.8091431 1302:4.0148101 1822:10.716548 1923:2.9565115 1971:0.6311118 2076:1.7203695 2382:2.7181005 2492:1.6094379 2818:4.3428059 2874:1.0216513 2974:5.8091431 3076:196.43597 3148:0.449417 3515:3.6119184 3649:6.2146082 4171:5.1159959 4189:2.1628232 4300:0.80743635 4457:0.14502577 4507:3.7297015 4579:2.6636124 4641:1.6607312 4675:22.813089 4826:3.0576077 4890:4.1997051 4969:2.1715569 5331:0.60696948 5569:35.1716 5728:5.2983174 5746:6.8366055 6001:4.7105308 6177:5.1159959 6223:4.1351666 6274:4.7105308 6550:10.469183 6597:3.7975447 6642:2.3227878 6721:5.2983174 6722:0.83240926 6727:6.2146082 7073:3.2029295 7149:0.2600669 7333:6.8483472 8108:221.97229 8316:12.052151 8443:4.6051702 8604:6.2146082 8967:12.819749 9080:5.8375425 9328:2.9922185 9634:3.6119184 9668:3.2968373 9948:1.7778566 10754:5.521461 11113:3.5755508 11203:3.7809508 11236:0.62175721 11468:0.091019399 11540:5.8091431 11632:2.5902672 11673:1.0817552 11746:5.521461 11762:9.2103405 12045:10.18827 12228:31.864136 12340:1.2073117 12383:5.8091431 12419:2.1715569 12941:3.8167129 13337:2.5010359 13350:1.4396951 13404:4.7105308 13588:3.8167129 14265:0.50087529 14484:0.12216763 15010:111.83743 15063:54.893314 15453:3.7722611 15580:2.6172957 15737:4.8283138 15807:4.1997051 15837:2.5257287 16039:1.2694006 16154:2.6712024 16167:1.1679623 16210:5.6604357 16214:2.9957323 16242:24.858433 16357:23.269655 16637:2.6172957 16672:6.2146082 16708:0.97551012 # Bonobo
2.0006791503086926561818387204639e-05 207:18.420681 216:4.1351666 334:19.815508 486:62.221992 692:2.0996442 912:25.198231 934:3.8167129 1302:4.0148101 1343:3.5065579 1822:5.9536381 2874:2.0433025 3070:4.6051702 3076:106.97009 3114:5.8091431 3448:4.6252708 3515:3.6119184 3558:3.9633162 3855:6.2146082 4171:5.1159959 4315:3.3242364 4347:10.231992 4457:0.14502577 4579:2.6636124 4620:34.732918 4675:26.792116 4907:6.2146082 5128:4.7105308 5273:23.779898 5591:5.3764954 5709:4.50986 5735:4.2686977 6134:0.32711613 6223:268.78583 6550:5.2345915 6557:27.289982 6597:16.456026 6780:2.8302178 6806:2.6296964 6919:5.8091431 7073:59.254196 7100:3.9038565 7149:0.52013379 7276:6.2146082 7333:47.938431 7540:5.8091431 7934:4.074542 8507:4.7105308 8579:1.6873995 8665:5.521461 8751:0.92130327 8950:14.484941 8957:3.1235657 8967:2.5639498 9288:4.6051702 9313:4.6051702 9532:3.4112477 9748:1.7302449 9858:4.074542 10011:3.6119184 10064:4.0173836 10074:6.2146082 10579:0.65200526 10672:6.2146082 11070:3.9633162 11203:3.7809508 11236:0.62175721 11237:25.612188 11468:0.091019399 11762:4.6051702 12045:6.3676686 12225:5.2983174 12235:10.469183 12276:4.3428059 12462:3.473768 12941:41.983841 12982:5.8091431 13128:5.2983174 13237:1.130103 13325:5.8091431 13350:14.396952 14026:37.216499 14281:6.2146082 14485:4.8283138 14647:5.2983174 15010:17.429211 15063:4.0165839 15206:3.1010928 15294:21.19327 15446:6.2146082 15507:2.7030628 15580:2.6172957 15624:2.3644605 16167:4.6718493 16210:2.8302178 16214:2.9957323 16327:13.815511 16357:6.6484728 16547:1.8078889 16637:15.703775 16651:11.618286 # Flying Lotus
-4.2935775451008435389514163171842e-06 53:3.0365543 161:2.0557251 405:3.8167129 486:0.81871039 520:2.7968814 536:4.7105308 692:4.1992884 1151:4.1351666 1302:81.099167 1660:0.51583815 1822:10.716548 1928:4.7105308 2076:1.7203695 2246:5.2118139 2268:2.1202636 2356:1.0328245 2382:2.7181005 2492:1.6094379 2818:4.3428059 2874:1.0216513 2949:6.2146082 3070:9.2103405 3076:138.08865 3448:2.3126354 3682:2.5770218 4189:2.1628232 4457:0.43507731 4579:2.6636124 4641:1.6607312 4675:20.690941 5066:0.87466908 5095:2.4415598 5569:13.18935 5707:18.643824 5746:7.9760399 5902:3.3813949 6001:4.7105308 6134:0.32711613 6177:5.1159959 6550:7.8518877 6597:10.126785 6721:5.2983174 6722:0.83240926 6906:1.2517635 7073:4.0036621 7149:0.2600669 7273:10.596635 7280:11.042922 7333:2.2827826 7787:6.2146082 7823:2.8134108 8108:204.89751 8316:44.191219 8591:4.1997051 8839:0.84164721 8967:35.895298 9080:2.9187713 9288:4.6051702 9304:3.7297015 9328:1.4961092 9634:3.6119184 9637:0.47481519 9748:0.86512244 9887:0.12669766 9948:1.7778566 10011:3.6119184 10064:4.0173836 10504:2.3751557 10724:0.73814452 10754:5.521461 11203:1.8904754 11468:0.27305821 11632:2.5902672 11762:9.2103405 12026:5.521461 12045:9.5515032 12228:7.0809188 12340:1.2073117 12409:4.1351666 12419:2.1715569 13007:3.5755508 13335:4.2686977 13350:1.4396951 13820:0.33407512 14265:0.50087529 14484:0.12216763 15010:31.953552 15063:47.529575 15594:3.7722611 15737:9.6566277 15949:5.8091431 16039:1.2694006 16154:4.0068035 16167:1.1679623 16210:2.8302178 16214:2.9957323 16357:103.05132 16476:2.095571 16637:2.6172957 16708:0.97551012 # The Cinematic Orchestra
-1.7375543296587154189604754184195e-05 224:31.789904 486:14.736787 692:3.1494663 1828:15.347987 3076:17.504196 3451:26.537092 4300:0.80743635 4457:0.87015462 4579:3.9954185 4675:26.792116 4873:7.3043752 6184:11.066638 6223:310.13748 6373:12.241325 6548:16.564383 6597:3.7975447 6780:16.981306 7612:82.893066 8751:5.5278196 8950:14.484941 9887:0.38009295 9917:13.268546 10684:24.447252 10703:53.074184 11408:16.895857 11713:30.432552 12045:1.9103005 12053:18.643824 12941:11.450138 13350:46.070244 13972:239.69 14026:62.0275 15063:55.562744 15404:5.2460999 16119:18.643824 16598:16.564383 # Flume
-2.0006791503086926561818387204639e-05 102:1.4229584 161:2.0557251 465:1.4271164 466:2.1370707 486:0.81871039 515:3.2968373 602:4.0348125 657:1.9310216 692:1.0498221 1168:1.5417793 1295:4.1997051 1302:0.80296206 1462:1.2066129 1484:0.89894211 1546:2.3330443 1660:1.0316763 1690:1.0356375 1971:57.431171 2356:1.0328245 2874:1.0216513 3076:1.9449106 3148:0.449417 4189:2.1628232 4300:0.80743635 4457:3.9156959 4592:2.5770218 4675:0.79580545 4846:0.7940731 5066:0.87466908 5095:1.2207799 5331:1.213939 5384:4.0173836 5481:2.7488723 6134:0.65423226 6373:2.0402207 6597:1.2658482 6722:1.6648185 6873:17.855577 6906:2.5035269 6908:1.9241487 7030:1.2207799 7149:0.78020072 7277:7.7323155 7454:1.9805017 7466:3.7297015 7481:1.3466891 7570:1.7259717 7654:16.352806 8668:2.7333679 8808:6.2146082 8839:0.84164721 9258:0.9038682 9328:2.9922185 9401:20.288368 9446:3.1700857 9637:3.3237064 9887:11.909579 10288:1.2517635 10724:9.5958796 10789:3.5755508 10798:4.1351666 11065:11.622521 11083:4.1351666 11152:0.75502259 11236:0.62175721 11446:3.5404594 11468:6.9174743 11673:1.0817552 12045:1.2735337 12322:4.8283138 12340:2.4146235 12560:2.3434072 12610:2.8647039 12644:7.997438 13132:5.1159959 13153:1.5464631 13261:4.3317704 13281:0.731888 13452:3.1117942 13559:2.2164073 13587:3.4112477 13603:12.429216 13681:0.87227386 13708:2.7030628 13820:6.6815023 13857:0.99967235 14022:267.16669 14110:9.2103405 14158:0.98349947 14265:1.0017506 14484:12.338931 14850:2.0479429 15010:1.4524342 15063:2.008292 15375:3.6903205 15529:3.1700857 15564:2.3126354 16039:1.2694006 16241:37.287647 16722:2.2537949 # The Cardigans
-8.5858241272260758313001694289057e-07 150:2.0099156 161:2.0557251 528:2.5133061 598:2.453408 602:2.0174062 692:1.0498221 806:5.8091431 1365:0.99967235 1462:0.60330647 1484:0.89894211 1524:3.079114 1546:2.3330443 1608:2.3968959 1633:3.5065579 1660:1.0316763 1969:4.1997051 2268:2.1202636 2353:1.7203695 2356:2.065649 3148:0.449417 3151:2.1037343 3267:243.46042 3532:3.8632329 3949:1.1363142 4010:3.1941831 4189:2.1628232 4244:4.50986 4457:9.7167263 4569:2.3751557 4846:2.3822193 4873:1.2173958 5066:0.87466908 5095:1.2207799 5262:2.4651041 5492:1.8451602 5746:1.1394343 6134:0.65423226 6295:1.9136281 6423:5.2983174 6501:5.8091431 6573:5.8091431 6629:4.4228487 6642:2.3227878 6722:0.83240926 6806:4.7334533 6906:2.5035269 7030:1.2207799 7149:0.78020072 7387:4.7105308 7454:1.9805017 7481:0.67334455 7654:0.77870506 7984:1.5847453 8057:4.4228487 8469:2.8134108 8839:2.5249417 9097:2.198225 9139:4.2686977 9328:1.4961092 9637:7.597043 9887:10.135812 10214:52.282288 10288:1.2517635 10579:1.9560157 11015:6.2146082 11065:11.622521 11152:0.75502259 11236:0.62175721 11444:2.8302178 11468:9.1929588 11673:1.0817552 11977:4.074542 12340:3.6219351 12560:2.3434072 12610:2.8647039 13198:5.521461 13261:1.4439235 13427:2.9374633 13452:6.2235885 13681:0.87227386 13820:22.048958 14265:1.0017506 14266:9.9236898 14412:4.074542 14469:1.7778566 14484:1.0995088 14738:4.2686977 14789:2.7646205 14898:3.6119184 14998:5.9518595 15042:1.7778566 15063:1.3388613 15475:12.429216 15614:5.8091431 15958:4.4228487 16178:5.1159959 16476:23.051281 16535:2.5510464 16708:0.97551012 16894:6.2146082 # The Fray
2.0006791503086926561818387204639e-05 48:6.2146082 277:3.8167129 300:2.4418471 466:2.1370707 637:5.8347321 644:2.7968814 692:1.0498221 811:3.8632329 1019:1.9951004 1168:10.792455 1185:3.3242364 1302:9.6355448 1439:11.042922 1462:0.60330647 1484:0.89894211 1660:44.362083 1822:1.1907276 1971:0.6311118 2356:1.0328245 2507:80.7798 2874:1.0216513 2903:80.789902 3226:22.658602 3231:11.618286 3330:2.4191189 3949:2.2726283 4199:98.078789 4457:0.29005155 4544:4.6051702 4675:0.26526847 4811:2.9759297 4846:0.7940731 4879:1.9877744 5066:0.87466908 5112:1.5417793 5269:5.8091431 5746:3.4183028 6134:0.9813484 6295:3.061805 6391:15.079156 6722:0.83240926 7027:5.521461 7339:2.5770218 7421:11.082037 7481:68.007797 7646:2.5010359 7804:3.5404594 7831:15.686724 8751:0.92130327 8791:4.7105308 8839:2.5249417 8967:2.5639498 9258:2.7116046 9304:3.7297015 9322:12.429216 9328:1.4961092 9497:4.5287776 9523:10.857784 9637:0.47481519 9748:7.7861018 9820:10.15323 9868:3.3524072 9887:8.6154404 9958:2.4191189 10563:2.1628232 10724:0.73814452 10748:4.9618449 11052:22.133276 11065:0.89404011 11152:57.381718 11236:0.62175721 11346:12.599115 11414:18.643824 11468:0.1820388 11614:2.3025851 11674:9.4210615 12045:0.63676685 12340:2.4146235 12472:2.4889147 12547:3.0159349 13261:1.4439235 13452:6.2235885 13509:4.1351666 13574:4.0651159 13681:1.7445477 13820:0.33407512 14158:0.98349947 14265:0.50087529 14449:2.7408421 14484:1.0995088 15063:0.66943067 15114:5.2621784 15824:5.5612416 16154:1.3356012 16167:1.1679623 16231:5.521461 16547:1.8078889 16696:11.450138 16868:12.429216 16960:9.4210615 # Van Morrison
1.172580199385484297093084488095e-05 291:3.8167129 302:3.0159349 404:4.9618449 486:0.81871039 754:2.7181005 807:4.2686977 1019:1.9951004 1168:3.0835586 1302:1.6059241 1462:0.60330647 1484:13.484132 1660:1.5475144 1737:4.7105308 1822:1.1907276 2267:3.2901301 2382:2.7181005 2419:166.36214 2442:4.0173836 2507:78.131279 2686:4.50986 2874:3.0649538 2913:12.429216 3148:0.449417 4457:0.14502577 4675:0.26526847 4811:2.9759297 4846:0.7940731 5066:2.6240072 5352:4.1351666 5459:4.1588831 5570:2.0714734 5621:3.2441936 5746:3.4183028 6098:5.8091431 6134:0.32711613 6243:6.2146082 6289:2.3227878 6295:0.76545125 6391:43.083302 6597:1.2658482 6701:6.2146082 6806:2.6296964 7030:1.2207799 7073:3.2029295 7144:35.38279 7167:6.2146082 7421:46.544556 7481:68.007797 7831:5.2289081 8297:4.074542 8508:1.5702173 9244:3.7722611 9258:0.9038682 9497:3.0191851 9523:2.1715569 9637:0.47481519 9748:0.86512244 9887:8.995533 10229:4.074542 10579:0.65200526 10736:3.473768 10780:4.1997051 10849:8.5373955 10963:4.4228487 11152:0.75502259 11259:3.1700857 11285:3.8632329 11417:19.621016 11468:0.27305821 11564:5.1159959 11566:2.1892564 12110:4.50986 12472:2.4889147 13024:2.1455812 13103:3.2441936 13281:0.731888 13291:4.074542 13359:3.3813949 13574:4.0651159 13739:4.6051702 13820:0.33407512 13857:0.99967235 14381:1.7259717 14449:17.815474 14484:0.12216763 14690:12.404371 14749:38.650227 14891:11.042922 15428:3.7297015 15485:5.1159959 15944:5.8091431 16014:4.0173836 16076:3.473768 16154:1.3356012 16167:63.069969 16547:3.6157777 16638:3.6496587 16641:3.4112477 16708:0.97551012 16742:4.4228487 # The Jimi Hendrix Experience
2.0006791503086926561818387204639e-05 291:3.8167129 468:11.618286 1019:1.9951004 1168:3.0835586 1302:0.80296206 1462:0.60330647 1484:2.6968262 1660:0.51583815 1690:1.0356375 1822:1.1907276 1916:2.3126354 2267:3.2901301 2419:142.59612 2442:4.0173836 2507:15.891108 2874:1.0216513 3006:3.6496587 3148:0.449417 3197:4.50986 3330:2.4191189 3724:2.1370707 3949:1.1363142 4340:5.521461 4457:0.43507731 4675:0.26526847 5066:2.6240072 5095:1.2207799 5459:4.1588831 5570:2.0714734 5674:5.1159959 5676:6.2146082 6119:4.6051702 6134:0.65423226 6295:0.76545125 6391:96.937431 6597:1.2658482 6722:0.83240926 6806:3.1556356 7027:5.521461 7030:1.2207799 7073:0.80073237 7100:3.9038565 7144:17.691395 7339:2.5770218 7421:19.947666 7481:68.007797 7646:2.5010359 7688:7.9266324 7831:13.943754 8015:12.429216 8287:2.2443161 8723:4.0173836 8751:0.92130327 8839:0.84164721 8957:3.1235657 9097:2.198225 9106:3.1941831 9258:0.9038682 9497:3.0191851 9637:0.47481519 9748:0.86512244 9887:8.7421379 9948:1.7778566 10579:1.3040105 11107:3.4420195 11152:0.75502259 11236:0.62175721 11259:3.1700857 11285:3.8632329 11468:0.54611641 11566:2.1892564 11614:2.3025851 12045:0.63676685 12110:4.50986 12235:2.6172957 12472:2.4889147 12652:2.7181005 13281:0.731888 13291:4.074542 13359:3.3813949 13447:3.8167129 13574:2.032558 13681:0.87227386 13759:49.716866 13820:0.66815025 14158:0.98349947 14265:0.50087529 14348:3.4420195 14381:1.7259717 14449:1.3704211 14469:1.7778566 14484:0.12216763 14690:3.1010928 15063:0.66943067 16014:4.0173836 16039:1.2694006 16076:3.473768 16167:53.726269 16547:1.8078889 16742:4.4228487 # The Doors
2.0006791503086926561818387204639e-05 10:4.7105308 444:5.8091431 466:98.305252 637:5.8347321 692:2.0996442 1405:5.521461 1546:2.3330443 1660:1.0316763 1889:6.2146082 2117:4.1351666 2177:3.6496587 2356:2.065649 2535:1.7092582 2592:7.2993174 2617:2.7488723 3148:0.449417 3151:2.1037343 3226:6.9718771 3554:5.8091431 3585:3.8632329 4300:0.80743635 4415:18.03944 4457:14.647603 4626:5.8091431 4811:8.9277887 4846:0.7940731 5095:1.2207799 5196:3.1235657 5267:6.2146082 5492:1.8451602 6119:4.6051702 6134:0.65423226 6166:24.858433 6295:1.1481769 6373:2.0402207 6642:4.6455755 6722:0.83240926 6806:5.2593927 7073:0.80073237 7149:0.52013379 7190:4.1351666 7438:4.0173836 7454:1.9805017 7570:3.4519434 7654:5.4509354 7829:5.8091431 7883:4.7105308 7885:6.2146082 8205:4.8283138 8377:3.9633162 8581:5.521461 8598:2.6310892 8839:1.6832944 8988:2.8647039 9157:3.3813949 9244:26.405827 9328:1.4961092 9637:41.783737 9820:2.5383074 9858:4.074542 9887:5.1946039 9958:9.6764755 10504:2.3751557 10579:1.3040105 10938:2.0479429 11152:11.325338 11203:1.8904754 11468:4.824028 11576:3.0365543 12158:6.2146082 12340:2.4146235 12419:2.1715569 12497:4.074542 12547:3.0159349 12560:2.3434072 13142:6.2146082 13820:2.672601 14120:6.7329488 14213:6.2146082 14265:0.50087529 14418:3.8167129 14484:0.12216763 14526:10.596635 14536:3.8167129 14577:6.2146082 14597:3.3242364 14709:3.8632329 14738:4.2686977 14789:2.7646205 14866:3.6888795 14898:3.6119184 14900:5.521461 14973:5.521461 15042:1.7778566 15190:3.8632329 15299:2.8473122 15541:4.2686977 15924:6.2146082 16167:1.1679623 16703:9.4210615 # Band of Horses
-2.0006791503086926561818387204639e-05 637:1.9449106 807:12.806094 833:3.1700857 846:3.0365543 1019:1.9951004 1168:6.1671171 1205:4.6051702 1209:5.8091431 1253:2.5133061 1302:0.80296206 1462:0.60330647 1484:1.7978842 1660:7.2217345 1971:46.071159 2267:4.9351954 2310:6.2146082 2419:21.785517 2442:4.0173836 2507:117.85905 2535:1.7092582 2608:2.1715569 2874:1.0216513 3148:0.449417 3197:4.50986 3226:1.7429693 3330:2.4191189 3518:4.7105308 4457:0.14502577 4481:6.2146082 4675:0.26526847 4811:2.9759297 4899:9.6566277 5007:3.9120231 5066:0.87466908 5456:3.5755508 5459:2.0794415 5820:5.521461 5924:6.2146082 6134:0.32711613 6391:133.55824 6597:1.2658482 6806:3.1556356 6906:1.2517635 6941:5.2983174 7100:1.9519283 7144:8.8456974 7277:6.1858525 7339:2.5770218 7421:39.895332 7481:68.007797 7614:3.9633162 7831:8.7148466 8723:4.0173836 8751:0.92130327 8753:12.429216 8839:0.84164721 8939:3.0576077 9207:4.3428059 9258:0.9038682 9497:3.0191851 9523:2.1715569 9748:4.3256121 9820:2.5383074 9865:3.8632329 9887:8.2353477 9948:1.7778566 10054:6.2146082 10579:1.3040105 11152:7.5502257 11236:0.62175721 11259:6.3401713 11444:2.8302178 11468:0.27305821 11614:2.3025851 12110:4.50986 12472:2.4889147 12644:6.3979502 12652:2.7181005 13281:0.731888 13346:4.4228487 13359:3.3813949 13559:2.2164073 13574:2.032558 13681:0.87227386 13820:0.33407512 13914:5.8091431 14265:0.50087529 14449:1.3704211 14484:0.12216763 14618:5.2983174 14690:12.404371 14771:3.3242364 14850:2.0479429 15375:1.8451602 15925:3.6119184 16076:20.842607 16167:10.511662 16436:6.2146082 16547:1.8078889 16775:43.502258 # Janis Joplin
-2.0006791503086926561818387204639e-05 277:3.8167129 488:3.0159349 527:6.2146082 607:5.8091431 754:2.7181005 807:17.074791 1019:1.9951004 1053:4.4228487 1168:7.7088962 1302:0.80296206 1484:0.89894211 1660:2.0633526 1971:0.6311118 2027:4.7105308 2229:12.429216 2267:1.6450651 2353:1.7203695 2419:1.9805017 2492:1.6094379 2507:109.9135 2578:4.0173836 2665:4.074542 2746:5.8091431 2874:2.0433025 3226:1.7429693 3568:9.9236898 3682:2.5770218 3949:1.1363142 4457:0.14502577 4675:0.26526847 4691:4.074542 4899:4.8283138 5066:0.87466908 5067:4.9618449 5086:4.4228487 5095:1.2207799 5379:6.2146082 5621:3.2441936 5746:13.673211 5915:2.1892564 6295:3.4445305 6391:28.004147 6806:0.52593929 6972:6.2146082 7149:0.2600669 7421:135.20085 7481:68.007797 7831:12.200785 8037:6.2146082 8508:1.5702173 8751:0.92130327 8839:0.84164721 9258:4.519341 9292:74.575294 9328:1.4961092 9497:1.5095925 9523:4.3431139 9748:45.85149 9820:2.5383074 9887:9.248929 10563:4.3256464 10724:2.2144337 10732:2.5770218 11052:3.6888795 11065:0.89404011 11152:1.5100452 11259:3.1700857 11271:6.2146082 11444:2.8302178 11468:0.091019399 11632:2.5902672 11977:4.074542 12362:6.2146082 12652:2.7181005 13182:6.2146082 13216:4.6051702 13261:1.4439235 13317:4.8283138 13376:5.521461 13452:12.447177 13563:6.2146082 13574:2.032558 13681:0.87227386 13900:9.6566277 14265:0.50087529 14449:1.3704211 14484:1.2216763 14690:18.606556 15063:0.66943067 15191:3.9633162 15529:3.1700857 15824:5.5612416 16154:4.0068035 16167:1.1679623 16196:6.2146082 16535:2.5510464 16564:5.8091431 16604:5.1159959 16708:1.9510202 16839:4.6051702 # Joe Cocker
